{"learner":{"attributes":{"scikit_learn":"{\"_estimator_type\": \"regressor\"}"},"feature_names":["album_release_month","acousticness","danceability","duration_ms","energy","instrumentalness","key","liveness","loudness","mode","song_explicit","speechiness","tempo","time_signature","total_available_markets","valence","release_year_missing_or_suspect","artist_lastfm_listeners_log","tag_electronic","tag_pop","tag_rap","tag_hip-hop","tag_rock","tag_hip_hop","tag_indie","tag_female_vocalists","tag_folk","tag_house","tag_german","tag_dance","tag_techno","tag_alternative","tag_ambient","tag_jazz","tag_all","tag_experimental","tag_instrumental","tag_singer-songwriter","tag_rnb","tag_soul","tag_punk","tag_hardcore","tag_usa","tag_trap","tag_japanese","tag_trance","tag_french","tag_indie_pop","tag_american","tag_polish","tag_british","tag_indie_rock","tag_soundtrack","tag_metal","tag_funk","tag_alternative_rock","tag_electronica","tag_swedish","tag_classical","tag_electro","tag_chillout","tag_punk_rock","tag_hard_rock","tag_reggae","tag_dubstep","tag_acoustic","tag_80s","tag_italian"],"feature_types":["float","float","float","float","float","float","float","float","float","float","i","float","float","float","int","float","i","float","int","int","int","int","int","int","int","int","int","int","int","int","int","int","int","int","int","int","int","int","int","int","int","int","int","int","int","int","int","int","int","int","int","int","int","int","int","int","int","int","int","int","int","int","int","int","int","int","int","int"],"gradient_booster":{"model":{"cats":{"enc":[],"feature_segments":[],"sorted_idx":[]},"gbtree_model_param":{"num_parallel_tree":"1","num_trees":"100"},"iteration_indptr":[0,1,2,3,4,5,6,7,8,9,10,11,12,13,14,15,16,17,18,19,20,21,22,23,24,25,26,27,28,29,30,31,32,33,34,35,36,37,38,39,40,41,42,43,44,45,46,47,48,49,50,51,52,53,54,55,56,57,58,59,60,61,62,63,64,65,66,67,68,69,70,71,72,73,74,75,76,77,78,79,80,81,82,83,84,85,86,87,88,89,90,91,92,93,94,95,96,97,98,99,100],"tree_info":[0,0,0,0,0,0,0,0,0,0,0,0,0,0,0,0,0,0,0,0,0,0,0,0,0,0,0,0,0,0,0,0,0,0,0,0,0,0,0,0,0,0,0,0,0,0,0,0,0,0,0,0,0,0,0,0,0,0,0,0,0,0,0,0,0,0,0,0,0,0,0,0,0,0,0,0,0,0,0,0,0,0,0,0,0,0,0,0,0,0,0,0,0,0,0,0,0,0,0,0],"trees":[{"base_weights":[-8.1493744E-7,-8.654586E0,1.1351568E1,-1.3362036E1,-3.0773985E0,7.802912E0,2.1147993E1,-1.4448088E1,-1.008198E1,-5.654799E0,-3.330256E-1,4.1420217E0,9.634375E0,2.311116E1,3.4223864E0,-9.974395E0,-1.5333036E1,-9.279776E0,-1.2760721E1,-4.713684E0,-9.450911E0,1.2230383E0,-4.182335E0,-4.7535336E-1,5.026503E0,1.04321E1,-5.004041E0,2.5299856E1,1.5993322E1,5.8005867E0,-5.996446E0,-3.0943618E0,-1.2000945E1,-1.6429995E1,-1.37412405E1,-2.1318536E0,-9.589878E0,-1.1372473E1,-1.7022646E1,-1.0403901E1,-4.1781406E0,-3.0388389E0,-1.0853052E1,-4.7343516E0,1.6302079E0,5.922208E0,-4.858716E0,2.210088E0,-3.4848216E0,4.850791E0,2.0613516E1,1.250223E1,6.6405754E0,-1.4483376E0,-1.1010961E1,2.6240938E1,1.2894863E1,1.3631053E1,2.1709375E1,3.8003917E0,1.2382191E1,-1.6887342E1,-4.854629E0,-1.9230954E-1,-3.6616046E0,-4.167297E0,-2.8667755E0,-4.540829E0,-5.43042E0,-3.888488E0,-4.895921E0,-5.1677995E0,-3.3527213E-1,-3.4546463E0,-2.6371374E0,-3.3223867E0,-6.2285852E0,-5.005339E0,-6.5689535E0,-1.6895462E0,-3.3169904E0,-1.2095975E0,-5.3781767E0,-1.264083E-1,-5.529578E0,-2.807626E0,-4.0039682E0,4.6918654E-1,-2.2068915E0,-1.0744207E-1,7.599105E-1,2.5848038E0,-3.1055279E0,-1.0062373E0,-2.4479551E0,-6.3177574E-1,9.2576355E-1,-1.513245E0,-3.4141177E-1,9.0371937E-1,1.7436485E0,7.1112E0,-8.0319005E-1,3.3885078E0,4.6511493E0,8.808079E-1,2.6793044E0,3.9667755E-1,-1.757362E0,-4.552436E0,-7.5798434E-1,7.1695127E0,9.019165E0,3.6137846E0,8.355579E0,4.4199886E0,1.8117247E0,7.1722775E0,3.2965255E0,-2.4619908E0,1.4485397E0,1.4793582E0,4.518406E0,1.4528141E0,-5.161106E0,-3.4599087E0,-1.1327323E0],"categories":[],"categories_nodes":[],"categories_segments":[],"categories_sizes":[],"default_left":[0,0,0,0,0,0,0,0,0,0,0,0,0,0,0,0,0,0,0,0,0,0,0,0,0,0,0,0,0,0,0,0,0,0,0,0,0,0,0,0,0,0,0,0,0,0,0,0,0,0,0,0,0,0,0,0,0,0,0,0,0,0,0,0,0,0,0,0,0,0,0,0,0,0,0,0,0,0,0,0,0,0,0,0,0,0,0,0,0,0,0,0,0,0,0,0,0,0,0,0,0,0,0,0,0,0,0,0,0,0,0,0,0,0,0,0,0,0,0,0,0,0,0,0,0,0,0],"id":0,"left_children":[1,3,5,7,9,11,13,15,17,19,21,23,25,27,29,31,33,35,37,39,41,43,45,47,49,51,53,55,57,59,61,63,65,67,69,71,73,75,77,79,81,83,85,87,89,91,93,95,97,99,101,103,105,107,109,111,113,115,117,119,121,123,125,-1,-1,-1,-1,-1,-1,-1,-1,-1,-1,-1,-1,-1,-1,-1,-1,-1,-1,-1,-1,-1,-1,-1,-1,-1,-1,-1,-1,-1,-1,-1,-1,-1,-1,-1,-1,-1,-1,-1,-1,-1,-1,-1,-1,-1,-1,-1,-1,-1,-1,-1,-1,-1,-1,-1,-1,-1,-1,-1,-1,-1,-1,-1,-1],"loss_changes":[3.820842E7,5.793579E6,5.848692E6,4.26146E5,7.1445575E5,8.280475E5,1.556728E6,3.55752E5,6.38545E4,1.8604388E5,2.9302472E5,1.6820544E5,9.61362E5,6.27062E5,9.998299E4,2.069985E5,1.30822E5,5.0768125E4,4.0382625E4,1.27159375E5,9.2993E4,8.4513125E4,9.627939E4,5.352505E4,9.456769E4,6.12669E5,9.086586E4,3.5926E5,1.2764375E5,4.6858016E4,1.1109887E4,7.55428E4,5.28725E4,9.5802E4,6.1352E4,1.45861875E4,3.370325E4,1.42455625E4,2.4086875E3,1.1120219E4,7.659325E4,7.485303E4,3.150925E4,3.6820914E4,5.854025E4,3.884276E4,6.5535188E4,1.3236211E4,1.1422582E4,6.0393188E4,2.7775703E4,1.827995E5,2.3393175E5,3.2676115E4,5.58495E4,2.55676E5,2.7268375E4,5.60365E4,6.499425E4,3.3788418E4,1.6494547E4,6.6761523E2,5.835752E3,0E0,0E0,0E0,0E0,0E0,0E0,0E0,0E0,0E0,0E0,0E0,0E0,0E0,0E0,0E0,0E0,0E0,0E0,0E0,0E0,0E0,0E0,0E0,0E0,0E0,0E0,0E0,0E0,0E0,0E0,0E0,0E0,0E0,0E0,0E0,0E0,0E0,0E0,0E0,0E0,0E0,0E0,0E0,0E0,0E0,0E0,0E0,0E0,0E0,0E0,0E0,0E0,0E0,0E0,0E0,0E0,0E0,0E0,0E0,0E0,0E0,0E0,0E0,0E0],"parents":[2147483647,0,0,1,1,2,2,3,3,4,4,5,5,6,6,7,7,8,8,9,9,10,10,11,11,12,12,13,13,14,14,15,15,16,16,17,17,18,18,19,19,20,20,21,21,22,22,23,23,24,24,25,25,26,26,27,27,28,28,29,29,30,30,31,31,32,32,33,33,34,34,35,35,36,36,37,37,38,38,39,39,40,40,41,41,42,42,43,43,44,44,45,45,46,46,47,47,48,48,49,49,50,50,51,51,52,52,53,53,54,54,55,55,56,56,57,57,58,58,59,59,60,60,61,61,62,62],"right_children":[2,4,6,8,10,12,14,16,18,20,22,24,26,28,30,32,34,36,38,40,42,44,46,48,50,52,54,56,58,60,62,64,66,68,70,72,74,76,78,80,82,84,86,88,90,92,94,96,98,100,102,104,106,108,110,112,114,116,118,120,122,124,126,-1,-1,-1,-1,-1,-1,-1,-1,-1,-1,-1,-1,-1,-1,-1,-1,-1,-1,-1,-1,-1,-1,-1,-1,-1,-1,-1,-1,-1,-1,-1,-1,-1,-1,-1,-1,-1,-1,-1,-1,-1,-1,-1,-1,-1,-1,-1,-1,-1,-1,-1,-1,-1,-1,-1,-1,-1,-1,-1,-1,-1,-1,-1,-1],"split_conditions":[1.0103526E1,7.358194E0,1.3261962E1,6.206576E0,8.90558E0,1.102347E1,1E0,1.20427E5,3.55E-2,1.18E-1,1.15E-2,1.21E-2,1E0,1.37E-2,1E0,1.3862944E0,4.3820267E0,4E0,3.18533E5,-1.6456E1,-1.9773E1,-1.4582E1,-2.5051E1,4.25E-2,9.93E-1,7.31E-3,1E0,6.35E-1,1.4745865E1,1E0,4.2E1,1E0,2.64E-2,2.11013E5,1.28E-1,-2.0817E1,-1.1517E1,1E0,1E0,1.69E2,1E0,1E0,2.74493E5,1.69E2,5.94E-1,1E0,2.77895E5,4.18E-1,1.064125E1,1.7E2,1E0,1.2396995E1,2.47E-2,1.2715853E1,1.3168549E1,1.4621986E1,1.5664342E1,1E0,4.62E-1,2.2E1,4.1E1,-3.418E1,4.28E-3,-1.9230954E-1,-3.6616046E0,-4.167297E0,-2.8667755E0,-4.540829E0,-5.43042E0,-3.888488E0,-4.895921E0,-5.1677995E0,-3.3527213E-1,-3.4546463E0,-2.6371374E0,-3.3223867E0,-6.2285852E0,-5.005339E0,-6.5689535E0,-1.6895462E0,-3.3169904E0,-1.2095975E0,-5.3781767E0,-1.264083E-1,-5.529578E0,-2.807626E0,-4.0039682E0,4.6918654E-1,-2.2068915E0,-1.0744207E-1,7.599105E-1,2.5848038E0,-3.1055279E0,-1.0062373E0,-2.4479551E0,-6.3177574E-1,9.2576355E-1,-1.513245E0,-3.4141177E-1,9.0371937E-1,1.7436485E0,7.1112E0,-8.0319005E-1,3.3885078E0,4.6511493E0,8.808079E-1,2.6793044E0,3.9667755E-1,-1.757362E0,-4.552436E0,-7.5798434E-1,7.1695127E0,9.019165E0,3.6137846E0,8.355579E0,4.4199886E0,1.8117247E0,7.1722775E0,3.2965255E0,-2.4619908E0,1.4485397E0,1.4793582E0,4.518406E0,1.4528141E0,-5.161106E0,-3.4599087E0,-1.1327323E0],"split_indices":[17,17,17,17,17,17,58,3,5,5,5,1,58,5,28,17,17,14,3,8,8,8,8,5,1,5,28,7,17,52,14,10,5,3,5,8,8,35,32,14,32,58,3,14,2,58,3,2,17,14,58,17,1,17,17,17,17,56,7,14,14,8,5,0,0,0,0,0,0,0,0,0,0,0,0,0,0,0,0,0,0,0,0,0,0,0,0,0,0,0,0,0,0,0,0,0,0,0,0,0,0,0,0,0,0,0,0,0,0,0,0,0,0,0,0,0,0,0,0,0,0,0,0,0,0,0,0],"split_type":[0,0,0,0,0,0,0,0,0,0,0,0,0,0,0,0,0,0,0,0,0,0,0,0,0,0,0,0,0,0,0,0,0,0,0,0,0,0,0,0,0,0,0,0,0,0,0,0,0,0,0,0,0,0,0,0,0,0,0,0,0,0,0,0,0,0,0,0,0,0,0,0,0,0,0,0,0,0,0,0,0,0,0,0,0,0,0,0,0,0,0,0,0,0,0,0,0,0,0,0,0,0,0,0,0,0,0,0,0,0,0,0,0,0,0,0,0,0,0,0,0,0,0,0,0,0,0],"sum_hessian":[3.88915E5,2.20672E5,1.68243E5,1.19666E5,1.01006E5,1.23506E5,4.4737E4,8.9897E4,2.9769E4,5.2087E4,4.8919E4,4.1185E4,8.2321E4,4.0276E4,4.461E3,1.4848E4,7.5049E4,2.2912E4,6.857E3,4.1741E4,1.0346E4,3.4837E4,1.4082E4,6.621E3,3.4564E4,7.8067E4,4.254E3,3.0802E4,9.474E3,3.562E3,8.99E2,3.379E3,1.1469E4,4.4425E4,3.0624E4,9.53E2,2.1959E4,5.175E3,1.682E3,3.589E3,3.8152E4,1.857E3,8.489E3,2.228E3,3.2609E4,8.83E2,1.3199E4,3.499E3,3.122E3,3.418E4,3.84E2,5.0495E4,2.7572E4,2.673E3,1.581E3,2.8629E4,2.173E3,6.706E3,2.768E3,2.733E3,8.29E2,8.4E1,8.15E2,2.663E3,7.16E2,6.466E3,5.003E3,2.5046E4,1.9379E4,2.3519E4,7.105E3,5.9E1,8.94E2,6.438E3,1.5521E4,5.018E3,1.57E2,1.577E3,1.05E2,4.33E2,3.156E3,3.7752E4,4E2,1.588E3,2.69E2,5.311E3,3.178E3,6.55E2,1.573E3,1.0183E4,2.2426E4,7.58E2,1.25E2,9.068E3,4.131E3,5.9E2,2.909E3,1.875E3,1.247E3,1.1738E4,2.2442E4,3.39E2,4.5E1,3.6015E4,1.448E4,1.0535E4,1.7037E4,1.642E3,1.031E3,1.06E3,5.21E2,1.7756E4,1.0873E4,2.058E3,1.15E2,5.855E3,8.51E2,2.296E3,4.72E2,2.15E2,2.518E3,2.2E2,6.09E2,1E0,8.3E1,1.12E2,7.03E2],"tree_param":{"num_deleted":"0","num_feature":"68","num_nodes":"127","size_leaf_vector":"1"}},{"base_weights":[-9.7278964E-5,-6.7125797E0,7.218414E0,-9.204446E0,-2.5881746E0,4.8393354E0,1.4804523E1,-1.0069958E1,-6.750616E0,-3.6132004E0,-7.5026757E-1,2.8686986E0,7.36345E0,5.0825405E0,1.6567238E1,-6.491454E0,-1.0619236E1,4.7902745E-1,-7.044125E0,-7.6279984E0,-3.1430569E0,-3.6460465E-1,-1.1537749E1,3.8499832E0,-4.88546E-1,8.108184E0,-3.6533647E0,9.488418E0,1.7350742E0,5.663234E0,1.7340408E1,8.5344356E-1,-7.6065125E0,-1.1396385E1,-8.910231E0,1.2650119E1,-1.7088453E0,-6.300602E0,-9.022862E0,-4.7209415E0,-8.747425E0,-2.983842E0,-1.3029889E1,-8.367196E-2,-9.485852E0,-2.6036863E0,-1.8530582E1,2.3874474E0,5.69016E0,-3.070319E0,1.095224E0,9.280833E0,3.1285272E0,-4.633707E0,9.607207E0,1.0075332E1,-1.5290982E1,3.4947228E0,-4.414556E0,2.8396692E0,1.0814314E1,1.9144386E1,1.32494E1,-2.2700007E0,8.604743E-1,-2.7796898E0,-1.811752E0,-3.6330187E0,-2.8232715E0,-2.4531052E0,-3.4756546E0,1.1289228E0,5.2460904E0,-1.402962E0,7.8075725E-1,-2.4778275E0,-1.7378877E0,-2.4914246E0,-3.4369166E0,-2.5800476E0,-1.1223043E0,-2.1225598E0,-3.0144117E0,-8.5563993E-1,-3.3974423E0,-4.165095E0,-5.4210377E-1,6.563491E-2,-2.5893695E0,-4.8878303E0,-1.3815548E0,-4.5910563E0,-5.132771E-1,-6.339201E0,4.9084476E-1,7.85971E-1,-3.5324874E0,7.2590756E-1,1.9323372E0,3.2760996E-1,-1.0978224E0,5.5002034E-1,-1.5836945E0,2.0738409E0,3.4055974E0,2.3017383E0,5.422864E-1,-1.0475963E-1,-2.122445E0,4.5769402E-1,3.3460004E0,3.3785264E0,4.479374E-1,-5.3520885E0,1.1060063E0,-1.5214506E0,1.3265929E0,7.6392096E-1,-1.5786418E0,3.724664E-1,2.6857703E0,3.4907687E0,1.073813E0,5.4976172E0,7.846041E0,4.218702E0,1.1723484E0],"categories":[],"categories_nodes":[],"categories_segments":[],"categories_sizes":[],"default_left":[0,0,0,0,0,0,0,0,0,0,0,0,0,0,0,0,0,0,0,0,0,0,0,0,0,0,0,0,0,0,0,0,0,0,0,0,0,0,0,0,0,0,0,0,0,0,0,0,0,0,0,0,0,0,0,0,0,0,0,0,0,0,0,0,0,0,0,0,0,0,0,0,0,0,0,0,0,0,0,0,0,0,0,0,0,0,0,0,0,0,0,0,0,0,0,0,0,0,0,0,0,0,0,0,0,0,0,0,0,0,0,0,0,0,0,0,0,0,0,0,0,0,0,0,0,0,0],"id":1,"left_children":[1,3,5,7,9,11,13,15,17,19,21,23,25,27,29,31,33,35,37,39,41,43,45,47,49,51,53,55,57,59,61,63,65,67,69,71,73,75,77,79,81,83,85,87,89,91,93,95,97,99,101,103,105,107,109,111,113,115,117,119,121,123,125,-1,-1,-1,-1,-1,-1,-1,-1,-1,-1,-1,-1,-1,-1,-1,-1,-1,-1,-1,-1,-1,-1,-1,-1,-1,-1,-1,-1,-1,-1,-1,-1,-1,-1,-1,-1,-1,-1,-1,-1,-1,-1,-1,-1,-1,-1,-1,-1,-1,-1,-1,-1,-1,-1,-1,-1,-1,-1,-1,-1,-1,-1,-1,-1],"loss_changes":[1.8844636E7,2.07111E6,3.382024E6,2.66733E5,1.4298547E5,7.09576E5,7.66595E5,1.82467E5,6.9517E4,9.194594E4,1.1305697E5,2.6393044E5,5.13186E5,1.0127642E5,3.1918E5,1.0123475E5,1.06822E5,3.407985E4,4.6259125E4,1.6578094E4,6.862319E4,6.723551E4,5.8552734E4,1.6683238E5,7.4098945E4,3.4207175E5,5.1537125E4,4.3275188E4,4.226135E4,3.646121E4,2.60728E5,2.7674447E4,2.7849E4,7.8298E4,4.9277375E4,8.316322E3,1.3894561E4,2.2709625E4,1.49268125E4,5.3733438E3,7.9456562E3,4.7128594E4,6.595828E3,6.581206E4,2.5971258E4,4.656386E3,2.7615531E4,1.1375089E5,6.7406625E4,1.6898238E4,5.2859508E4,2.32486E5,6.701768E4,3.858061E4,3.3941504E3,2.9480812E4,3.4039902E3,2.4137559E4,5.1404883E3,1.5834385E4,5.2366875E3,1.40384E5,8.2151625E4,0E0,0E0,0E0,0E0,0E0,0E0,0E0,0E0,0E0,0E0,0E0,0E0,0E0,0E0,0E0,0E0,0E0,0E0,0E0,0E0,0E0,0E0,0E0,0E0,0E0,0E0,0E0,0E0,0E0,0E0,0E0,0E0,0E0,0E0,0E0,0E0,0E0,0E0,0E0,0E0,0E0,0E0,0E0,0E0,0E0,0E0,0E0,0E0,0E0,0E0,0E0,0E0,0E0,0E0,0E0,0E0,0E0,0E0,0E0,0E0,0E0,0E0,0E0,0E0],"parents":[2147483647,0,0,1,1,2,2,3,3,4,4,5,5,6,6,7,7,8,8,9,9,10,10,11,11,12,12,13,13,14,14,15,15,16,16,17,17,18,18,19,19,20,20,21,21,22,22,23,23,24,24,25,25,26,26,27,27,28,28,29,29,30,30,31,31,32,32,33,33,34,34,35,35,36,36,37,37,38,38,39,39,40,40,41,41,42,42,43,43,44,44,45,45,46,46,47,47,48,48,49,49,50,50,51,51,52,52,53,53,54,54,55,55,56,56,57,57,58,58,59,59,60,60,61,61,62,62],"right_children":[2,4,6,8,10,12,14,16,18,20,22,24,26,28,30,32,34,36,38,40,42,44,46,48,50,52,54,56,58,60,62,64,66,68,70,72,74,76,78,80,82,84,86,88,90,92,94,96,98,100,102,104,106,108,110,112,114,116,118,120,122,124,126,-1,-1,-1,-1,-1,-1,-1,-1,-1,-1,-1,-1,-1,-1,-1,-1,-1,-1,-1,-1,-1,-1,-1,-1,-1,-1,-1,-1,-1,-1,-1,-1,-1,-1,-1,-1,-1,-1,-1,-1,-1,-1,-1,-1,-1,-1,-1,-1,-1,-1,-1,-1,-1,-1,-1,-1,-1,-1,-1,-1,-1,-1,-1,-1],"split_conditions":[9.671303E0,7.587817E0,1.3261962E1,6.336826E0,8.993551E0,1.1439742E1,-1.37E1,1.098E5,4E0,6.33E-3,1E0,2.532E5,1E0,1E0,1.01E2,6.931472E-1,1E1,2E0,7.31E-3,3.74E-4,1E0,1E0,9.562334E0,1.064125E1,4.67E-2,2.77895E5,1E0,1E0,1E0,5.1E1,1.47E-3,8E0,1.62E-3,5.241747E0,2.544E5,7.358194E0,7.0012455E0,-1.3473E1,3.22025E5,4.35E-1,2.34947E5,1E0,4.72E-1,1E0,1.66E2,-1.3585E1,9.5991335E0,1E0,2.14E-2,3.48E-6,1E0,1.7E2,2.01E-5,1.2715853E1,1.1900227E1,1.4E-1,-1.5187E1,1.3390728E1,1.67E-2,1E0,1.1E1,1E0,6.72E-1,-2.2700007E0,8.604743E-1,-2.7796898E0,-1.811752E0,-3.6330187E0,-2.8232715E0,-2.4531052E0,-3.4756546E0,1.1289228E0,5.2460904E0,-1.402962E0,7.8075725E-1,-2.4778275E0,-1.7378877E0,-2.4914246E0,-3.4369166E0,-2.5800476E0,-1.1223043E0,-2.1225598E0,-3.0144117E0,-8.5563993E-1,-3.3974423E0,-4.165095E0,-5.4210377E-1,6.563491E-2,-2.5893695E0,-4.8878303E0,-1.3815548E0,-4.5910563E0,-5.132771E-1,-6.339201E0,4.9084476E-1,7.85971E-1,-3.5324874E0,7.2590756E-1,1.9323372E0,3.2760996E-1,-1.0978224E0,5.5002034E-1,-1.5836945E0,2.0738409E0,3.4055974E0,2.3017383E0,5.422864E-1,-1.0475963E-1,-2.122445E0,4.5769402E-1,3.3460004E0,3.3785264E0,4.479374E-1,-5.3520885E0,1.1060063E0,-1.5214506E0,1.3265929E0,7.6392096E-1,-1.5786418E0,3.724664E-1,2.6857703E0,3.4907687E0,1.073813E0,5.4976172E0,7.846041E0,4.218702E0,1.1723484E0],"split_indices":[17,17,17,17,17,17,8,3,14,1,29,3,58,58,14,17,0,0,5,5,58,32,17,17,1,3,52,34,28,14,5,0,5,17,3,17,17,8,3,2,3,35,4,30,14,8,17,58,1,5,28,14,5,17,17,11,8,17,4,24,0,43,7,0,0,0,0,0,0,0,0,0,0,0,0,0,0,0,0,0,0,0,0,0,0,0,0,0,0,0,0,0,0,0,0,0,0,0,0,0,0,0,0,0,0,0,0,0,0,0,0,0,0,0,0,0,0,0,0,0,0,0,0,0,0,0,0],"split_type":[0,0,0,0,0,0,0,0,0,0,0,0,0,0,0,0,0,0,0,0,0,0,0,0,0,0,0,0,0,0,0,0,0,0,0,0,0,0,0,0,0,0,0,0,0,0,0,0,0,0,0,0,0,0,0,0,0,0,0,0,0,0,0,0,0,0,0,0,0,0,0,0,0,0,0,0,0,0,0,0,0,0,0,0,0,0,0,0,0,0,0,0,0,0,0,0,0,0,0,0,0,0,0,0,0,0,0,0,0,0,0,0,0,0,0,0,0,0,0,0,0,0,0,0,0,0,0],"sum_hessian":[3.88915E5,2.01521E5,1.87394E5,1.25622E5,7.5899E4,1.42657E5,4.4737E4,9.2864E4,3.2758E4,4.8724E4,2.7175E4,8.0113E4,6.2544E4,6.867E3,3.787E4,1.2359E4,8.0505E4,1.278E3,3.148E4,5.106E3,4.3618E4,2.6238E4,9.37E2,6.1993E4,1.812E4,5.8584E4,3.96E3,2.964E3,3.903E3,2.508E3,3.5362E4,1.629E3,1.073E4,5.5336E4,2.5169E4,1.94E2,1.084E3,2.2885E4,8.595E3,1.421E3,3.685E3,4.2928E4,6.9E2,2.5455E4,7.83E2,4.12E2,5.25E2,3.4542E4,2.7451E4,6.889E3,1.1231E4,4.7417E4,1.1167E4,3.688E3,2.72E2,2.896E3,6.8E1,3.035E3,8.68E2,1.621E3,8.87E2,2.4538E4,1.0824E4,3.14E2,1.315E3,5.21E3,5.52E3,4.0701E4,1.4635E4,1.9758E4,5.411E3,6.9E1,1.25E2,6.42E2,4.42E2,4.707E3,1.8178E4,6.64E3,1.955E3,2.85E2,1.136E3,1.615E3,2.07E3,4.2262E4,6.66E2,6.41E2,4.9E1,2.4586E4,8.69E2,3.26E2,4.57E2,2.6E1,3.86E2,4.65E2,6E1,3.3985E4,5.57E2,5.127E3,2.2324E4,8.54E2,6.035E3,1.0066E4,1.165E3,2.2125E4,2.5292E4,2.514E3,8.653E3,1.339E3,2.349E3,4.4E1,2.28E2,2.544E3,3.52E2,6E1,8E0,2.96E2,2.739E3,9.4E1,7.74E2,1.286E3,3.35E2,7.96E2,9.1E1,2.1974E4,2.564E3,9.957E3,8.67E2],"tree_param":{"num_deleted":"0","num_feature":"68","num_nodes":"127","size_leaf_vector":"1"}},{"base_weights":[-1.3850085E-4,-4.17209E0,5.734572E0,-6.443293E0,-1.3049028E0,4.1154633E0,1.0943272E1,-6.976139E0,-4.331672E0,-2.421868E0,4.328754E-2,5.293162E0,1.7253584E0,1.2005999E1,1.6507945E0,-4.386097E0,-7.3039207E0,-7.2629633E0,-3.8574524E0,-2.1700897E0,-6.9041452E0,1.0475489E0,-1.9717332E0,3.8351676E0,7.118278E0,2.6671398E0,-7.113994E-1,1.2892328E1,5.8190274E0,3.0501513E0,-3.3810537E0,4.7214413E-1,-5.2960753E0,-7.7487197E0,-5.7151356E0,-6.8821235E0,-1.4060607E1,-3.672131E0,-1.0026221E1,-4.3706737E0,-1.8125763E0,-7.3933434E0,8.245477E0,-3.5956597E0,1.5262814E0,-1.4292998E0,-7.98368E0,4.9745047E-1,4.542389E0,-3.7154894E0,7.5768147E0,5.540106E-1,4.187164E0,-8.716722E0,-4.2507038E-1,1.3944035E1,7.218479E0,1.0465825E1,4.6887136E0,-1.2527644E1,3.4484484E0,-8.50027E0,-2.2032685E0,-2.2836099E0,5.5080175E-1,-4.142759E0,-1.4580092E0,-2.6494079E0,-2.0651374E0,-4.926918E-1,-1.8606595E0,-1.7239364E0,-2.6459134E0,-4.3410716E0,-1.3190178E0,2.4307166E-1,-1.16787E0,-7.5502443E-1,-3.4275475E0,-1.0187494E0,-1.940349E0,-9.387426E-1,-3.1508023E-1,-1.4815228E0,-2.79844E0,2.8185208E0,-2.8818793E0,-8.9608335E-1,-4.292102E0,-2.1683021E-1,6.0151803E-1,1.6861465E0,-6.15624E-1,-1.439829E0,-4.7197638E0,5.9513575E-1,-7.872979E-1,1.5855556E0,7.664582E-1,-6.7530864E-1,-5.4431176E0,2.547377E0,9.7388834E-1,8.184173E-1,-3.104658E-1,3.2892575E0,1.0153172E0,-2.360223E-1,-2.888339E0,3.0285707E-1,-5.849842E-1,2.153624E0,4.3815203E0,2.9780953E0,9.677086E-1,-8.974686E-1,3.435044E0,1.7264606E0,1.2142953E-2,-1.3054333E0,-5.2641344E0,3.147716E-1,1.7894678E0,-8.128946E-2,-3.2801933E0,4.443491E-1,-1.0226536E0],"categories":[],"categories_nodes":[],"categories_segments":[],"categories_sizes":[],"default_left":[0,0,0,0,0,0,0,0,0,0,0,0,0,0,0,0,0,0,0,0,0,0,0,0,0,0,0,0,0,0,0,0,0,0,0,0,0,0,0,0,0,0,0,0,0,0,0,0,0,0,0,0,0,0,0,0,0,0,0,0,0,0,0,0,0,0,0,0,0,0,0,0,0,0,0,0,0,0,0,0,0,0,0,0,0,0,0,0,0,0,0,0,0,0,0,0,0,0,0,0,0,0,0,0,0,0,0,0,0,0,0,0,0,0,0,0,0,0,0,0,0,0,0,0,0,0,0],"id":2,"left_children":[1,3,5,7,9,11,13,15,17,19,21,23,25,27,29,31,33,35,37,39,41,43,45,47,49,51,53,55,57,59,61,63,65,67,69,71,73,75,77,79,81,83,85,87,89,91,93,95,97,99,101,103,105,107,109,111,113,115,117,119,121,123,125,-1,-1,-1,-1,-1,-1,-1,-1,-1,-1,-1,-1,-1,-1,-1,-1,-1,-1,-1,-1,-1,-1,-1,-1,-1,-1,-1,-1,-1,-1,-1,-1,-1,-1,-1,-1,-1,-1,-1,-1,-1,-1,-1,-1,-1,-1,-1,-1,-1,-1,-1,-1,-1,-1,-1,-1,-1,-1,-1,-1,-1,-1,-1,-1],"loss_changes":[9.304814E6,1.466056E6,1.381211E6,1.41317E5,1.498534E5,3.51692E5,3.835195E5,8.51275E4,3.516175E4,6.140353E4,9.124652E4,2.2270425E5,9.4654766E4,1.910425E5,2.8084184E4,4.9830406E4,6.28785E4,9.026234E3,2.4875906E4,4.0532703E4,2.1508875E4,6.689784E4,4.889827E4,1.09839125E5,1.8467688E5,9.554847E4,2.6351502E4,1.818045E5,2.2898406E4,1.9401521E4,5.2147363E3,1.9628695E4,3.5171875E4,6.507675E4,3.863075E4,7.2966406E3,6.726797E2,2.0940438E4,6.642082E3,1.4699734E4,4.4487625E4,1.32723125E4,1.9577744E3,1.8298473E4,2.9377535E4,6.0415574E4,3.0545328E4,3.776094E4,5.6673062E4,3.1864826E4,1.4119038E5,4.2998945E4,9.409297E4,2.8606719E3,2.4288467E4,1.14899E5,5.1542203E4,1.1346672E4,1.7424148E4,3.1247793E3,1.8365785E4,3.2415273E3,3.145448E3,0E0,0E0,0E0,0E0,0E0,0E0,0E0,0E0,0E0,0E0,0E0,0E0,0E0,0E0,0E0,0E0,0E0,0E0,0E0,0E0,0E0,0E0,0E0,0E0,0E0,0E0,0E0,0E0,0E0,0E0,0E0,0E0,0E0,0E0,0E0,0E0,0E0,0E0,0E0,0E0,0E0,0E0,0E0,0E0,0E0,0E0,0E0,0E0,0E0,0E0,0E0,0E0,0E0,0E0,0E0,0E0,0E0,0E0,0E0,0E0,0E0,0E0,0E0,0E0],"parents":[2147483647,0,0,1,1,2,2,3,3,4,4,5,5,6,6,7,7,8,8,9,9,10,10,11,11,12,12,13,13,14,14,15,15,16,16,17,17,18,18,19,19,20,20,21,21,22,22,23,23,24,24,25,25,26,26,27,27,28,28,29,29,30,30,31,31,32,32,33,33,34,34,35,35,36,36,37,37,38,38,39,39,40,40,41,41,42,42,43,43,44,44,45,45,46,46,47,47,48,48,49,49,50,50,51,51,52,52,53,53,54,54,55,55,56,56,57,57,58,58,59,59,60,60,61,61,62,62],"right_children":[2,4,6,8,10,12,14,16,18,20,22,24,26,28,30,32,34,36,38,40,42,44,46,48,50,52,54,56,58,60,62,64,66,68,70,72,74,76,78,80,82,84,86,88,90,92,94,96,98,100,102,104,106,108,110,112,114,116,118,120,122,124,126,-1,-1,-1,-1,-1,-1,-1,-1,-1,-1,-1,-1,-1,-1,-1,-1,-1,-1,-1,-1,-1,-1,-1,-1,-1,-1,-1,-1,-1,-1,-1,-1,-1,-1,-1,-1,-1,-1,-1,-1,-1,-1,-1,-1,-1,-1,-1,-1,-1,-1,-1,-1,-1,-1,-1,-1,-1,-1,-1,-1,-1,-1,-1,-1],"split_conditions":[1.019694E1,7.587817E0,1.3537767E1,6.645091E0,9.118773E0,1.66E-2,1E0,1.02137E5,1.37E-2,1E0,2.11E-3,1.1687634E1,2.87213E5,2.08E-1,1E0,1.0986123E0,1.1E1,1E0,1E0,1.82E-2,9.23E-1,-1.4187E1,1E0,5.01E-1,-1.5689E1,1.7E2,5.5E1,3.74E-1,3.45E-2,6.6034E4,2.64E-2,4.25E-6,1E0,3.871201E0,6.931472E-1,2.69949E5,1E0,6.1E1,3.96E-2,4.19E-1,-1.071E1,7.46E-2,7.39E-1,1E0,5.18E-1,-2.2244E1,1E0,2.83E-1,2.27093E5,7.8E-1,3.44E-1,5.54E-1,-2.4204E1,3.25E-2,1.24033E2,1.44E2,1E0,5E1,3.52E5,8E0,8.46E-1,1.3658308E1,9.48E-1,-2.2836099E0,5.5080175E-1,-4.142759E0,-1.4580092E0,-2.6494079E0,-2.0651374E0,-4.926918E-1,-1.8606595E0,-1.7239364E0,-2.6459134E0,-4.3410716E0,-1.3190178E0,2.4307166E-1,-1.16787E0,-7.5502443E-1,-3.4275475E0,-1.0187494E0,-1.940349E0,-9.387426E-1,-3.1508023E-1,-1.4815228E0,-2.79844E0,2.8185208E0,-2.8818793E0,-8.9608335E-1,-4.292102E0,-2.1683021E-1,6.0151803E-1,1.6861465E0,-6.15624E-1,-1.439829E0,-4.7197638E0,5.9513575E-1,-7.872979E-1,1.5855556E0,7.664582E-1,-6.7530864E-1,-5.4431176E0,2.547377E0,9.7388834E-1,8.184173E-1,-3.104658E-1,3.2892575E0,1.0153172E0,-2.360223E-1,-2.888339E0,3.0285707E-1,-5.849842E-1,2.153624E0,4.3815203E0,2.9780953E0,9.677086E-1,-8.974686E-1,3.435044E0,1.7264606E0,1.2142953E-2,-1.3054333E0,-5.2641344E0,3.147716E-1,1.7894678E0,-8.128946E-2,-3.2801933E0,4.443491E-1,-1.0226536E0],"split_indices":[17,17,17,17,17,5,58,3,1,18,5,17,3,5,28,17,0,40,28,1,11,8,28,2,8,14,14,7,11,3,5,5,13,17,17,3,55,14,11,5,8,5,1,58,2,8,58,7,3,11,7,5,8,11,12,14,22,14,3,0,5,17,1,0,0,0,0,0,0,0,0,0,0,0,0,0,0,0,0,0,0,0,0,0,0,0,0,0,0,0,0,0,0,0,0,0,0,0,0,0,0,0,0,0,0,0,0,0,0,0,0,0,0,0,0,0,0,0,0,0,0,0,0,0,0,0,0],"split_type":[0,0,0,0,0,0,0,0,0,0,0,0,0,0,0,0,0,0,0,0,0,0,0,0,0,0,0,0,0,0,0,0,0,0,0,0,0,0,0,0,0,0,0,0,0,0,0,0,0,0,0,0,0,0,0,0,0,0,0,0,0,0,0,0,0,0,0,0,0,0,0,0,0,0,0,0,0,0,0,0,0,0,0,0,0,0,0,0,0,0,0,0,0,0,0,0,0,0,0,0,0,0,0,0,0,0,0,0,0,0,0,0,0,0,0,0,0,0,0,0,0,0,0,0,0,0,0],"sum_hessian":[3.88915E5,2.25133E5,1.63782E5,1.25622E5,9.9511E4,1.24945E5,3.8837E4,1.00308E5,2.5314E4,5.4422E4,4.5089E4,8.3701E4,4.1244E4,3.4851E4,3.986E3,1.127E4,8.9038E4,3.523E3,2.1791E4,5.1529E4,2.893E3,3.0092E4,1.4997E4,4.6532E4,3.7169E4,2.9747E4,1.1497E4,3.0483E4,4.368E3,3.119E3,8.67E2,1.778E3,9.492E3,6.956E4,1.9478E4,3.338E3,1.85E2,2.1157E4,6.34E2,7.2E3,4.4329E4,2.803E3,9E1,2.812E3,2.728E4,1.3757E4,1.24E3,8.136E3,3.8396E4,1.509E3,3.566E4,1.2446E4,1.7301E4,3.96E2,1.1101E4,2.5715E4,4.768E3,8.53E2,3.515E3,7.7E1,3.042E3,1.61E2,7.06E2,2.56E2,1.522E3,4.61E2,9.031E3,3.0888E4,3.8672E4,2.081E3,1.7397E4,2.107E3,1.231E3,1.77E2,8E0,9.93E2,2.0164E4,1E2,5.34E2,4.917E3,2.283E3,1.6254E4,2.8075E4,1.237E3,1.566E3,8.5E1,5E0,2.662E3,1.5E2,4.788E3,2.2492E4,1.116E3,1.2641E4,8.8E2,3.6E2,5.512E3,2.624E3,2.7949E4,1.0447E4,1.371E3,1.38E2,2.9442E4,6.218E3,5.255E3,7.191E3,1.831E3,1.547E4,4.1E1,3.55E2,5.72E3,5.381E3,2.29E3,2.3425E4,2.84E3,1.928E3,5.8E1,7.95E2,2.859E3,6.56E2,3E1,4.7E1,1.558E3,1.484E3,3.7E1,1.24E2,1.74E2,5.32E2],"tree_param":{"num_deleted":"0","num_feature":"68","num_nodes":"127","size_leaf_vector":"1"}},{"base_weights":[-2.0150788E-4,-2.8639889E0,4.124275E0,-4.51054E0,-8.734814E-1,3.1533473E0,8.900262E0,-5.1953206E0,-3.5442433E0,-5.458044E-1,-3.3753428E0,1.4078008E0,4.3017983E0,4.146212E0,1.0154351E1,-5.9293256E0,-3.0373924E0,-2.9068196E0,-5.3796453E0,-1.7010663E0,2.726756E-1,-1.4208786E0,-4.4187884E0,3.682478E0,4.3197328E-1,3.28029E0,6.7001634E0,-4.787442E0,4.672029E0,9.1748E0,1.4316574E1,-6.9545813E0,-5.18442E0,-6.252173E-1,-7.187227E0,-4.5444355E0,-2.550951E0,-4.4439716E0,-6.7745204E0,-1.561492E0,-1.0856317E1,4.1490203E-1,-6.707664E0,1.0555211E0,-2.836891E0,-2.478234E0,-5.785746E0,5.3151765E0,1.7251378E0,1.8492398E0,-1.1548512E0,3.8798015E0,3.1470424E-1,6.8986526E0,-1.6582788E1,1.0238357E0,-5.896141E0,4.3531165E0,2.0439514E1,8.710484E0,2.0458319E1,1.3283821E1,1.8927866E1,-8.938972E-1,-2.1747322E0,-1.427383E0,-2.462325E0,1.0702009E0,-6.859481E-1,-1.7099317E0,-2.5707846E0,-1.020054E0,-1.7191743E0,-7.395335E-1,-2.8091533E0,-1.2796683E0,-2.9174516E0,1.9050863E0,-2.0614097E0,4.535752E-1,-5.579358E-1,-1.2962993E0,-4.46957E0,1.7614475E-1,-1.4432776E0,-4.4456673E0,-1.7440337E0,-3.5191435E-1,6.6800785E-1,-2.3636715E0,-6.6330636E-1,2.7275171E0,-8.1418437E-1,-2.0888813E0,-1.4007971E0,-4.0628532E-1,1.7320523E0,7.4361753E-1,-3.8696617E-1,7.2065747E-1,-8.730357E-1,-1.6668639E-1,-1.548318E0,1.3844696E0,6.451967E-1,-3.099618E-1,6.952393E-1,2.394174E0,8.623213E-1,-2.7781444E0,-6.392519E0,9.07192E-1,-3.5941365E0,-2.2275662E0,-8.7732506E-1,1.830101E0,5.5290806E-1,4.4480987E0,8.456151E0,2.3699167E0,4.6250596E0,6.280976E0,1.0814406E0,3.8612535E0,7.597174E0,6.3328815E0,3.3409388E0],"categories":[],"categories_nodes":[],"categories_segments":[],"categories_sizes":[],"default_left":[0,0,0,0,0,0,0,0,0,0,0,0,0,0,0,0,0,0,0,0,0,0,0,0,0,0,0,0,0,0,0,0,0,0,0,0,0,0,0,0,0,0,0,0,0,0,0,0,0,0,0,0,0,0,0,0,0,0,0,0,0,0,0,0,0,0,0,0,0,0,0,0,0,0,0,0,0,0,0,0,0,0,0,0,0,0,0,0,0,0,0,0,0,0,0,0,0,0,0,0,0,0,0,0,0,0,0,0,0,0,0,0,0,0,0,0,0,0,0,0,0,0,0,0,0,0,0],"id":3,"left_children":[1,3,5,7,9,11,13,15,17,19,21,23,25,27,29,31,33,35,37,39,41,43,45,47,49,51,53,55,57,59,61,63,65,67,69,71,73,75,77,79,81,83,85,87,89,91,93,95,97,99,101,103,105,107,109,111,113,115,117,119,121,123,125,-1,-1,-1,-1,-1,-1,-1,-1,-1,-1,-1,-1,-1,-1,-1,-1,-1,-1,-1,-1,-1,-1,-1,-1,-1,-1,-1,-1,-1,-1,-1,-1,-1,-1,-1,-1,-1,-1,-1,-1,-1,-1,-1,-1,-1,-1,-1,-1,-1,-1,-1,-1,-1,-1,-1,-1,-1,-1,-1,-1,-1,-1,-1,-1],"loss_changes":[4.593742E6,7.5230375E5,7.3902975E5,8.31065E4,8.518958E4,2.65519E5,1.60491E5,1.16431125E5,6.0943562E4,8.688218E4,2.4535578E4,1.166743E5,1.9570475E5,2.6431523E4,8.67315E4,4.1859875E4,1.8680448E5,2.2527844E4,1.7498E4,4.8672523E4,5.3396945E4,1.4695701E4,2.0795734E4,5.041972E4,8.272988E4,9.961294E4,1.10390625E5,2.0226812E3,2.6612078E4,9.0191375E4,1.9069375E4,2.7001E4,4.0933625E4,8.221594E4,1.40535625E4,9.349641E3,1.8558828E4,7.534422E3,6.8947344E3,3.4411367E4,1.5046367E4,4.744797E4,7.703797E3,3.9829177E3,8.395527E3,8.871695E3,6.015625E3,2.6305672E4,1.6312215E4,5.1143453E4,4.1660242E4,5.923175E4,2.544017E4,1.0299575E5,6.7923516E3,1.3627576E3,1.1733584E3,2.2820602E4,4.147875E3,8.9968375E4,5.4136875E3,1.6172E4,1.2344031E4,0E0,0E0,0E0,0E0,0E0,0E0,0E0,0E0,0E0,0E0,0E0,0E0,0E0,0E0,0E0,0E0,0E0,0E0,0E0,0E0,0E0,0E0,0E0,0E0,0E0,0E0,0E0,0E0,0E0,0E0,0E0,0E0,0E0,0E0,0E0,0E0,0E0,0E0,0E0,0E0,0E0,0E0,0E0,0E0,0E0,0E0,0E0,0E0,0E0,0E0,0E0,0E0,0E0,0E0,0E0,0E0,0E0,0E0,0E0,0E0,0E0,0E0,0E0,0E0],"parents":[2147483647,0,0,1,1,2,2,3,3,4,4,5,5,6,6,7,7,8,8,9,9,10,10,11,11,12,12,13,13,14,14,15,15,16,16,17,17,18,18,19,19,20,20,21,21,22,22,23,23,24,24,25,25,26,26,27,27,28,28,29,29,30,30,31,31,32,32,33,33,34,34,35,35,36,36,37,37,38,38,39,39,40,40,41,41,42,42,43,43,44,44,45,45,46,46,47,47,48,48,49,49,50,50,51,51,52,52,53,53,54,54,55,55,56,56,57,57,58,58,59,59,60,60,61,61,62,62],"right_children":[2,4,6,8,10,12,14,16,18,20,22,24,26,28,30,32,34,36,38,40,42,44,46,48,50,52,54,56,58,60,62,64,66,68,70,72,74,76,78,80,82,84,86,88,90,92,94,96,98,100,102,104,106,108,110,112,114,116,118,120,122,124,126,-1,-1,-1,-1,-1,-1,-1,-1,-1,-1,-1,-1,-1,-1,-1,-1,-1,-1,-1,-1,-1,-1,-1,-1,-1,-1,-1,-1,-1,-1,-1,-1,-1,-1,-1,-1,-1,-1,-1,-1,-1,-1,-1,-1,-1,-1,-1,-1,-1,-1,-1,-1,-1,-1,-1,-1,-1,-1,-1,-1,-1,-1,-1,-1],"split_conditions":[1.0311017E1,7.587817E0,1.4053941E1,5.4722705E0,3.00816E5,5.73E-1,-1.1212E1,5.18E-1,2.01E-2,8.850517E0,1.06E-3,6.84E-6,1.2396995E1,5.3E1,1.5316863E1,2.8903718E0,2.11013E5,-1.4187E1,2.40039E5,1E0,1E0,4.98E-2,1.22985E2,1.84E-1,1.35E-1,3.57E-1,8.36E-1,1.4489959E1,1E0,1E0,1E0,9.52E4,8.7E-1,1.0986123E0,3.0341E5,6.03E-1,1E0,1E0,6.83E-3,5E0,8.736489E0,1E0,1.13483E5,2.63E-1,-1.6456E1,2.87E-2,1.30534E2,1.4304E5,6.54E-1,1E0,6.54E-1,7.07E-1,1.4E-1,2.5555E5,1.2886195E1,1.01E-1,1E0,1.35E-1,1E0,1E0,3.25642E5,1E0,1E0,-8.938972E-1,-2.1747322E0,-1.427383E0,-2.462325E0,1.0702009E0,-6.859481E-1,-1.7099317E0,-2.5707846E0,-1.020054E0,-1.7191743E0,-7.395335E-1,-2.8091533E0,-1.2796683E0,-2.9174516E0,1.9050863E0,-2.0614097E0,4.535752E-1,-5.579358E-1,-1.2962993E0,-4.46957E0,1.7614475E-1,-1.4432776E0,-4.4456673E0,-1.7440337E0,-3.5191435E-1,6.6800785E-1,-2.3636715E0,-6.6330636E-1,2.7275171E0,-8.1418437E-1,-2.0888813E0,-1.4007971E0,-4.0628532E-1,1.7320523E0,7.4361753E-1,-3.8696617E-1,7.2065747E-1,-8.730357E-1,-1.6668639E-1,-1.548318E0,1.3844696E0,6.451967E-1,-3.099618E-1,6.952393E-1,2.394174E0,8.623213E-1,-2.7781444E0,-6.392519E0,9.07192E-1,-3.5941365E0,-2.2275662E0,-8.7732506E-1,1.830101E0,5.5290806E-1,4.4480987E0,8.456151E0,2.3699167E0,4.6250596E0,6.280976E0,1.0814406E0,3.8612535E0,7.597174E0,6.3328815E0,3.3409388E0],"split_indices":[17,17,17,17,3,2,8,5,5,17,5,5,17,14,17,17,3,8,3,32,41,11,12,7,7,5,11,17,47,47,38,3,11,17,3,1,40,35,4,14,17,29,3,1,8,15,12,3,7,28,7,15,1,3,17,11,52,7,19,43,3,65,29,0,0,0,0,0,0,0,0,0,0,0,0,0,0,0,0,0,0,0,0,0,0,0,0,0,0,0,0,0,0,0,0,0,0,0,0,0,0,0,0,0,0,0,0,0,0,0,0,0,0,0,0,0,0,0,0,0,0,0,0,0,0,0,0],"split_type":[0,0,0,0,0,0,0,0,0,0,0,0,0,0,0,0,0,0,0,0,0,0,0,0,0,0,0,0,0,0,0,0,0,0,0,0,0,0,0,0,0,0,0,0,0,0,0,0,0,0,0,0,0,0,0,0,0,0,0,0,0,0,0,0,0,0,0,0,0,0,0,0,0,0,0,0,0,0,0,0,0,0,0,0,0,0,0,0,0,0,0,0,0,0,0,0,0,0,0,0,0,0,0,0,0,0,0,0,0,0,0,0,0,0,0,0,0,0,0,0,0,0,0,0,0,0,0],"sum_hessian":[3.88915E5,2.29538E5,1.59377E5,1.25622E5,1.03916E5,1.32452E5,2.6925E4,7.3518E4,5.2104E4,9.1883E4,1.2033E4,5.2563E4,7.9889E4,5.621E3,2.1304E4,5.4857E4,1.8661E4,3.8675E4,1.3429E4,3.8102E4,5.3781E4,4.189E3,7.844E3,1.5779E4,3.6784E4,5.6028E4,2.3861E4,3.12E2,5.309E3,1.7248E4,4.056E3,2.3081E4,3.1776E4,1.1802E4,6.859E3,6.902E3,3.1773E4,8.04E3,5.389E3,3.7531E4,5.71E2,5.2708E4,1.073E3,1.524E3,2.665E3,3.243E3,4.601E3,8.602E3,7.177E3,1.943E4,1.7354E4,4.6606E4,9.422E3,2.366E4,2.01E2,5E1,2.62E2,5.205E3,1.04E2,1.6568E4,6.8E2,3.317E3,7.39E2,1.593E3,2.1488E4,2.785E4,3.926E3,3.349E3,8.453E3,3.306E3,3.553E3,3.515E3,3.387E3,3.1379E4,3.94E2,7.779E3,2.61E2,3.9E1,5.35E3,3.32E3,3.4211E4,2.19E2,3.52E2,5.1027E4,1.681E3,1.05E2,9.68E2,5.25E2,9.99E2,2.93E2,2.372E3,6.4E1,3.179E3,2.237E3,2.364E3,5.53E2,8.049E3,5.742E3,1.435E3,1.7408E4,2.022E3,1.5097E4,2.257E3,3.2702E4,1.3904E4,5.632E3,3.79E3,1.8646E4,5.014E3,8E1,1.21E2,4.4E1,6E0,1.72E2,9E1,3.068E3,2.137E3,6.2E1,4.2E1,1.4783E4,1.785E3,6.61E2,1.9E1,3.209E3,1.08E2,5.76E2,1.63E2],"tree_param":{"num_deleted":"0","num_feature":"68","num_nodes":"127","size_leaf_vector":"1"}},{"base_weights":[-1.353308E-4,-1.8280267E0,3.250832E0,-2.9441383E0,-1.19621806E-1,2.540771E0,6.231855E0,-3.455253E0,-1.9241178E0,-2.0010574E-1,1.0217743E1,2.837803E0,-2.4622893E0,5.102663E0,9.176573E0,4.621093E-1,-3.5777307E0,2.4755676E0,-2.1576433E0,-2.6758122E0,1.0689043E-1,1.2704805E1,-5.4177847E0,6.7836154E-1,3.4745274E0,-3.356003E0,5.1898875E0,3.3839622E0,7.6924543E0,1.1924716E1,6.5208263E0,4.276367E0,-9.757816E-1,-4.190276E0,-2.9242554E0,-4.915735E0,3.8020296E0,-2.06123E0,-8.113919E0,-2.361002E0,-6.8422594E0,2.296744E-1,-7.3545384E0,1.4316192E1,-1.4640183E1,-3.4235716E-1,-1.1211287E1,-4.871439E0,1.0006689E0,-9.539327E0,3.5848446E0,-8.0505495E0,-2.6028073E0,-6.4440113E-1,7.2834225E0,2.521557E0,9.518329E0,8.969892E0,2.4044204E0,1.4063392E1,8.802543E0,7.0677896E0,-6.3766446E0,1.4130497E0,-3.3617003E0,1.594376E0,-5.606387E-1,-1.435375E0,-1.0692382E0,-1.5560903E-1,-9.578466E-1,1.5145596E0,-2.0735667E0,2.7044327E0,7.523945E-1,-4.8480743E-1,-1.0300391E0,-1.5641514E0,-2.709385E0,-4.6196413E-1,-1.0701889E0,-2.865955E0,-1.3060975E0,1.1401471E-1,-1.5311055E0,-1.3191861E0,-3.568373E0,-8.896055E-1,5.109008E0,3.4754563E-2,-4.5159874E0,-1.7198212E0,1.5179485E0,-3.6081803E0,1.5928534E0,-8.0682373E-1,-2.749898E0,-3.3986926E-1,5.9119254E-1,-5.675844E0,-2.2385685E0,1.1570807E0,-4.761472E-1,-3.16815E0,-1.7448683E0,-9.5401794E-1,1.319324E0,9.9487233E-1,-2.2882025E0,1.3115783E0,3.2256835E0,8.734295E-1,-2.6179204E0,2.271768E0,4.5653954E0,2.8788178E0,1.1471871E-1,3.0757558E-1,3.2570252E0,4.4032755E0,6.878644E-1,2.3390937E0,6.526503E0,2.5372074E0,7.022305E-1,-2.6947513E0,1.729077E0],"categories":[],"categories_nodes":[],"categories_segments":[],"categories_sizes":[],"default_left":[0,0,0,0,0,0,0,0,0,0,0,0,0,0,0,0,0,0,0,0,0,0,0,0,0,0,0,0,0,0,0,0,0,0,0,0,0,0,0,0,0,0,0,0,0,0,0,0,0,0,0,0,0,0,0,0,0,0,0,0,0,0,0,0,0,0,0,0,0,0,0,0,0,0,0,0,0,0,0,0,0,0,0,0,0,0,0,0,0,0,0,0,0,0,0,0,0,0,0,0,0,0,0,0,0,0,0,0,0,0,0,0,0,0,0,0,0,0,0,0,0,0,0,0,0,0,0],"id":4,"left_children":[1,3,5,7,9,11,13,15,17,19,21,23,25,27,29,31,33,35,37,39,41,43,45,47,49,51,53,55,57,59,61,63,65,67,69,71,73,75,77,79,81,83,85,87,89,91,93,95,97,99,101,103,105,107,109,111,113,115,117,119,121,123,125,-1,-1,-1,-1,-1,-1,-1,-1,-1,-1,-1,-1,-1,-1,-1,-1,-1,-1,-1,-1,-1,-1,-1,-1,-1,-1,-1,-1,-1,-1,-1,-1,-1,-1,-1,-1,-1,-1,-1,-1,-1,-1,-1,-1,-1,-1,-1,-1,-1,-1,-1,-1,-1,-1,-1,-1,-1,-1,-1,-1,-1,-1,-1,-1],"loss_changes":[2.3111062E6,4.7468056E5,2.9626412E5,7.849475E4,8.184674E4,1.680025E5,8.948619E4,4.8128875E4,5.1650594E4,7.418933E4,2.9622594E4,1.4672338E5,4.3348402E4,8.6614125E4,5.4382625E4,1.6687982E4,3.89225E4,2.4862738E4,2.7394688E4,1.4108898E4,7.95642E4,2.9115156E4,3.083634E3,4.3473086E4,1.18349125E5,2.0041816E4,8.1027656E3,6.188322E4,5.242528E4,2.4355281E4,2.6830781E4,5.6472764E3,1.2424358E4,1.8665E4,3.040475E4,7.7125166E3,1.4473561E4,2.8692078E4,1.9748359E3,9.913512E3,5.0586953E3,6.8524984E4,1.8824688E4,2.9128023E4,2.2728955E2,1.6888369E3,7.244116E2,1.2477008E4,4.7534547E4,1.3363051E4,1.15006875E5,4.3352773E3,1.9778938E4,4.8929136E3,4.881574E3,4.5022895E4,1.5876852E4,3.3620062E4,1.761454E4,1.5682969E4,1.9276E4,2.3909297E4,4.955311E3,0E0,0E0,0E0,0E0,0E0,0E0,0E0,0E0,0E0,0E0,0E0,0E0,0E0,0E0,0E0,0E0,0E0,0E0,0E0,0E0,0E0,0E0,0E0,0E0,0E0,0E0,0E0,0E0,0E0,0E0,0E0,0E0,0E0,0E0,0E0,0E0,0E0,0E0,0E0,0E0,0E0,0E0,0E0,0E0,0E0,0E0,0E0,0E0,0E0,0E0,0E0,0E0,0E0,0E0,0E0,0E0,0E0,0E0,0E0,0E0,0E0,0E0,0E0,0E0],"parents":[2147483647,0,0,1,1,2,2,3,3,4,4,5,5,6,6,7,7,8,8,9,9,10,10,11,11,12,12,13,13,14,14,15,15,16,16,17,17,18,18,19,19,20,20,21,21,22,22,23,23,24,24,25,25,26,26,27,27,28,28,29,29,30,30,31,31,32,32,33,33,34,34,35,35,36,36,37,37,38,38,39,39,40,40,41,41,42,42,43,43,44,44,45,45,46,46,47,47,48,48,49,49,50,50,51,51,52,52,53,53,54,54,55,55,56,56,57,57,58,58,59,59,60,60,61,61,62,62],"right_children":[2,4,6,8,10,12,14,16,18,20,22,24,26,28,30,32,34,36,38,40,42,44,46,48,50,52,54,56,58,60,62,64,66,68,70,72,74,76,78,80,82,84,86,88,90,92,94,96,98,100,102,104,106,108,110,112,114,116,118,120,122,124,126,-1,-1,-1,-1,-1,-1,-1,-1,-1,-1,-1,-1,-1,-1,-1,-1,-1,-1,-1,-1,-1,-1,-1,-1,-1,-1,-1,-1,-1,-1,-1,-1,-1,-1,-1,-1,-1,-1,-1,-1,-1,-1,-1,-1,-1,-1,-1,-1,-1,-1,-1,-1,-1,-1,-1,-1,-1,-1,-1,-1,-1,-1,-1,-1],"split_conditions":[1.0714062E1,8.420902E0,1.4053941E1,6.645091E0,9.93E-1,1E0,1E0,-2.3462E1,5E0,5.37E-3,1E0,1.55E-2,1E0,1.4827497E1,2.67E-6,3.51E-1,8E0,7.0012455E0,1E0,1E0,1E0,1E0,2.86E-1,5.7E1,6.0389E4,1.245E5,1.1900227E1,1E0,4.18E-1,1E0,4.99E-1,1E0,6.931472E-1,4.3820267E0,6.931472E-1,3E0,2E0,2.68E-1,3.77E-2,5.54E-1,1.856E5,1E0,1E0,1.7E2,1.7E2,8.79E-1,1E0,2.48869E5,-7.132E0,3.3556E4,6.72E-1,5.18E-1,-1.2267E1,1.7E2,8.79E-1,1E0,1.4489959E1,1E0,1E0,1E0,1E0,8.43E-1,7.41E-1,1.4130497E0,-3.3617003E0,1.594376E0,-5.606387E-1,-1.435375E0,-1.0692382E0,-1.5560903E-1,-9.578466E-1,1.5145596E0,-2.0735667E0,2.7044327E0,7.523945E-1,-4.8480743E-1,-1.0300391E0,-1.5641514E0,-2.709385E0,-4.6196413E-1,-1.0701889E0,-2.865955E0,-1.3060975E0,1.1401471E-1,-1.5311055E0,-1.3191861E0,-3.568373E0,-8.896055E-1,5.109008E0,3.4754563E-2,-4.5159874E0,-1.7198212E0,1.5179485E0,-3.6081803E0,1.5928534E0,-8.0682373E-1,-2.749898E0,-3.3986926E-1,5.9119254E-1,-5.675844E0,-2.2385685E0,1.1570807E0,-4.761472E-1,-3.16815E0,-1.7448683E0,-9.5401794E-1,1.319324E0,9.9487233E-1,-2.2882025E0,1.3115783E0,3.2256835E0,8.734295E-1,-2.6179204E0,2.271768E0,4.5653954E0,2.8788178E0,1.1471871E-1,3.0757558E-1,3.2570252E0,4.4032755E0,6.878644E-1,2.3390937E0,6.526503E0,2.5372074E0,7.022305E-1,-2.6947513E0,1.729077E0],"split_indices":[17,17,17,17,1,58,19,8,14,1,58,1,52,17,5,1,0,17,35,40,58,29,15,14,3,3,17,43,7,25,5,18,17,17,17,0,0,11,11,5,3,32,28,14,14,5,36,3,8,3,7,5,8,14,5,33,17,33,21,54,48,4,15,0,0,0,0,0,0,0,0,0,0,0,0,0,0,0,0,0,0,0,0,0,0,0,0,0,0,0,0,0,0,0,0,0,0,0,0,0,0,0,0,0,0,0,0,0,0,0,0,0,0,0,0,0,0,0,0,0,0,0,0,0,0,0,0],"split_type":[0,0,0,0,0,0,0,0,0,0,0,0,0,0,0,0,0,0,0,0,0,0,0,0,0,0,0,0,0,0,0,0,0,0,0,0,0,0,0,0,0,0,0,0,0,0,0,0,0,0,0,0,0,0,0,0,0,0,0,0,0,0,0,0,0,0,0,0,0,0,0,0,0,0,0,0,0,0,0,0,0,0,0,0,0,0,0,0,0,0,0,0,0,0,0,0,0,0,0,0,0,0,0,0,0,0,0,0,0,0,0,0,0,0,0,0,0,0,0,0,0,0,0,0,0,0,0],"sum_hessian":[3.88915E5,2.48944E5,1.39971E5,1.50573E5,9.8371E4,1.13046E5,2.6925E4,1.00308E5,5.0265E4,9.7612E4,7.59E2,1.06711E5,6.335E3,1.9464E4,7.461E3,3.041E3,9.7267E4,2.533E3,4.7732E4,1.0768E4,8.6844E4,6.55E2,1.04E2,2.43E4,8.2411E4,5.673E3,6.62E2,1.1701E4,7.763E3,3.665E3,3.796E3,8.32E2,2.209E3,5.0203E4,4.7064E4,3.85E2,2.148E3,4.6973E4,7.59E2,1.0013E4,7.55E2,8.5439E4,1.405E3,6.19E2,3.6E1,5.6E1,4.8E1,1.333E3,2.2967E4,6.92E2,8.1719E4,7.83E2,4.89E3,1.75E2,4.87E2,1.026E4,1.441E3,6.252E3,1.511E3,2.173E3,1.492E3,3.642E3,1.54E2,8.1E2,2.2E1,2.74E2,1.935E3,2.5753E4,2.445E4,4.727E3,4.2337E4,6.4E1,3.21E2,4.26E2,1.722E3,3.5468E4,1.1505E4,1.84E2,5.75E2,5.959E3,4.054E3,3.6E2,3.95E2,8.3097E4,2.342E3,8.52E2,5.53E2,8.4E1,5.35E2,1E0,3.5E1,2.8E1,2.8E1,4.6E1,2E0,8.85E2,4.48E2,7.178E3,1.5789E4,1.24E2,5.68E2,7.7635E4,4.084E3,3.67E2,4.16E2,4.518E3,3.72E2,1.12E2,6.3E1,2.66E2,2.21E2,9.917E3,3.43E2,1.076E3,3.65E2,5.827E3,4.25E2,1.3E3,2.11E2,2.065E3,1.08E2,1.386E3,1.06E2,2.814E3,8.28E2,1.27E2,2.7E1],"tree_param":{"num_deleted":"0","num_feature":"68","num_nodes":"127","size_leaf_vector":"1"}},{"base_weights":[-1.10067704E-4,-1.6070579E0,1.8621992E0,-2.3905475E0,-8.1747216E-1,9.444163E-1,3.4093516E0,-2.1006563E0,-3.5132778E0,-7.170297E-1,-6.4332848E0,-1.8949121E-1,1.7407064E0,2.463348E0,6.9376297E0,-2.5191965E0,-4.7690645E-1,-2.324229E0,-4.7146726E0,-3.652355E-1,-1.9277517E0,-9.913482E0,-5.384155E0,3.5703084E-1,-1.9403934E0,8.585282E0,1.5895516E0,3.0327199E0,-1.2359029E0,7.7333856E0,1.1412387E0,-3.1763225E0,-1.8506637E0,2.4990861E0,-1.4430798E0,-5.7196674E0,-1.5398662E0,2.4377892E0,-4.797434E0,-3.3240218E0,-6.311082E-2,6.798036E0,-2.2461672E0,-8.5274725E0,-1.2796869E1,-4.279919E0,-7.6095443E0,-2.791806E0,6.411973E-1,-1.9008345E1,-1.831879E0,1.0877818E1,-2.539528E0,-1.0714165E-1,2.3397117E0,-1.2622856E0,3.5032852E0,-4.533616E0,1.4347346E-1,8.5642805E0,3.6916323E0,5.6266284E0,-1.8096377E0,-7.5835603E-1,-1.1990305E0,-9.886188E-1,-4.470004E-1,-2.0305379E-1,1.0796467E0,-2.0006874E0,-2.868818E-1,3.271315E-1,-1.7762165E0,-2.5039956E-1,-7.8177035E-1,-1.2623506E0,1.897725E0,-1.1845219E0,-1.5480393E0,-4.6784934E-1,-1.4696141E0,5.1145043E-2,-6.650508E-1,2.3579643E0,-3.6975324E0,-7.333821E-1,2.2571325E0,-2.7366536E0,2.6997298E-1,-3.9236982E0,3.7511685E0,-1.4068444E0,6.4840317E-1,-3.573883E0,-2.013423E0,-2.1950154E0,-5.520891E-1,4.2147583E-1,-1.3028273E-1,-6.611199E0,-1.9298747E0,-8.884843E-1,-1.1334344E-1,4.8488522E-1,4.113736E0,-2.347099E0,2.0040943E-1,3.0143373E0,-8.249333E-2,1.0119135E0,1.246669E-1,-9.4987005E-1,5.880024E-1,9.220742E-1,2.404478E0,-5.1318103E-1,-2.4472027E0,-4.7824074E-2,3.22897E0,2.6380148E0,-2.3862886E0,1.7378148E0,1.4461255E-1,2.0611641E0,1.9386075E-1,-2.8051164E0,-9.766456E-2],"categories":[],"categories_nodes":[],"categories_segments":[],"categories_sizes":[],"default_left":[0,0,0,0,0,0,0,0,0,0,0,0,0,0,0,0,0,0,0,0,0,0,0,0,0,0,0,0,0,0,0,0,0,0,0,0,0,0,0,0,0,0,0,0,0,0,0,0,0,0,0,0,0,0,0,0,0,0,0,0,0,0,0,0,0,0,0,0,0,0,0,0,0,0,0,0,0,0,0,0,0,0,0,0,0,0,0,0,0,0,0,0,0,0,0,0,0,0,0,0,0,0,0,0,0,0,0,0,0,0,0,0,0,0,0,0,0,0,0,0,0,0,0,0,0,0,0],"id":5,"left_children":[1,3,5,7,9,11,13,15,17,19,21,23,25,27,29,31,33,35,37,39,41,43,45,47,49,51,53,55,57,59,61,63,65,67,69,71,73,75,77,79,81,83,85,87,89,91,93,95,97,99,101,103,105,107,109,111,113,115,117,119,121,123,125,-1,-1,-1,-1,-1,-1,-1,-1,-1,-1,-1,-1,-1,-1,-1,-1,-1,-1,-1,-1,-1,-1,-1,-1,-1,-1,-1,-1,-1,-1,-1,-1,-1,-1,-1,-1,-1,-1,-1,-1,-1,-1,-1,-1,-1,-1,-1,-1,-1,-1,-1,-1,-1,-1,-1,-1,-1,-1,-1,-1,-1,-1,-1,-1],"loss_changes":[1.1638862E6,1.29151125E5,2.5579369E5,3.4098625E4,5.864871E4,1.0209523E5,2.2386006E5,5.660172E4,3.0706469E4,4.351051E4,6.6173203E3,4.4638477E4,6.870906E4,1.1141175E5,6.5401188E4,2.9084812E4,4.9085395E4,2.877832E4,6.342578E3,7.076089E4,6.3919086E4,1.5773633E3,3.4224727E3,3.1813506E4,2.051814E4,3.66259E4,8.2720266E4,9.264872E4,3.2096898E4,4.1842688E4,2.268316E4,1.7756094E4,1.7099945E4,1.4615836E4,3.2778082E4,2.7832031E3,6.5998613E3,3.2046826E3,3.2354531E3,2.0370477E4,3.6135383E4,1.6544582E4,4.3041117E4,1.6228867E3,1.1271641E3,2.4952227E3,1.7172871E3,1.2657607E4,2.6785244E4,2.5245918E3,1.81147E4,3.1218984E4,4.1747246E3,3.396392E4,8.960306E4,2.7779709E4,8.006775E4,2.1274312E4,1.6007456E4,3.9208688E4,1.4347623E4,4.208328E3,1.15686E4,0E0,0E0,0E0,0E0,0E0,0E0,0E0,0E0,0E0,0E0,0E0,0E0,0E0,0E0,0E0,0E0,0E0,0E0,0E0,0E0,0E0,0E0,0E0,0E0,0E0,0E0,0E0,0E0,0E0,0E0,0E0,0E0,0E0,0E0,0E0,0E0,0E0,0E0,0E0,0E0,0E0,0E0,0E0,0E0,0E0,0E0,0E0,0E0,0E0,0E0,0E0,0E0,0E0,0E0,0E0,0E0,0E0,0E0,0E0,0E0,0E0,0E0,0E0,0E0],"parents":[2147483647,0,0,1,1,2,2,3,3,4,4,5,5,6,6,7,7,8,8,9,9,10,10,11,11,12,12,13,13,14,14,15,15,16,16,17,17,18,18,19,19,20,20,21,21,22,22,23,23,24,24,25,25,26,26,27,27,28,28,29,29,30,30,31,31,32,32,33,33,34,34,35,35,36,36,37,37,38,38,39,39,40,40,41,41,42,42,43,43,44,44,45,45,46,46,47,47,48,48,49,49,50,50,51,51,52,52,53,53,54,54,55,55,56,56,57,57,58,58,59,59,60,60,61,61,62,62],"right_children":[2,4,6,8,10,12,14,16,18,20,22,24,26,28,30,32,34,36,38,40,42,44,46,48,50,52,54,56,58,60,62,64,66,68,70,72,74,76,78,80,82,84,86,88,90,92,94,96,98,100,102,104,106,108,110,112,114,116,118,120,122,124,126,-1,-1,-1,-1,-1,-1,-1,-1,-1,-1,-1,-1,-1,-1,-1,-1,-1,-1,-1,-1,-1,-1,-1,-1,-1,-1,-1,-1,-1,-1,-1,-1,-1,-1,-1,-1,-1,-1,-1,-1,-1,-1,-1,-1,-1,-1,-1,-1,-1,-1,-1,-1,-1,-1,-1,-1,-1,-1,-1,-1,-1,-1,-1,-1],"split_conditions":[9.846124E0,6.846943E0,1.2543484E1,2.6024E5,1E0,1.7E2,1E0,6.07E-1,8.35E-4,4.7E-2,3.79E-1,1.65E-1,-2.6027E1,1E0,2.81467E5,4.3820267E0,1.3862944E0,2.4849067E0,-2.8712E1,-1.5689E1,2.87E-2,1.13E-2,1E0,3.9E-1,3.3556E4,1E0,-9.733E0,1.49E2,1.3168549E1,1E0,4.03E-2,1.94E-1,-1.3585E1,7E0,5.3427E4,1.61E2,1.49E-1,4.6728287E0,3.0341E5,8.410275E0,1E0,9.812852E0,9.94E-1,-2.518E0,9.29E-1,-2.683E0,-8.762E0,1.728E5,6.12E-1,5.07E-1,1.1609326E1,1.15357E5,8.27E-1,2.87E-2,8.11E-1,-5.48E0,1E0,1E0,1E0,1E0,1.5021742E1,3.11E-1,9.93E-3,-7.5835603E-1,-1.1990305E0,-9.886188E-1,-4.470004E-1,-2.0305379E-1,1.0796467E0,-2.0006874E0,-2.868818E-1,3.271315E-1,-1.7762165E0,-2.5039956E-1,-7.8177035E-1,-1.2623506E0,1.897725E0,-1.1845219E0,-1.5480393E0,-4.6784934E-1,-1.4696141E0,5.1145043E-2,-6.650508E-1,2.3579643E0,-3.6975324E0,-7.333821E-1,2.2571325E0,-2.7366536E0,2.6997298E-1,-3.9236982E0,3.7511685E0,-1.4068444E0,6.4840317E-1,-3.573883E0,-2.013423E0,-2.1950154E0,-5.520891E-1,4.2147583E-1,-1.3028273E-1,-6.611199E0,-1.9298747E0,-8.884843E-1,-1.1334344E-1,4.8488522E-1,4.113736E0,-2.347099E0,2.0040943E-1,3.0143373E0,-8.249333E-2,1.0119135E0,1.246669E-1,-9.4987005E-1,5.880024E-1,9.220742E-1,2.404478E0,-5.1318103E-1,-2.4472027E0,-4.7824074E-2,3.22897E0,2.6380148E0,-2.3862886E0,1.7378148E0,1.4461255E-1,2.0611641E0,1.9386075E-1,-2.8051164E0,-9.766456E-2],"split_indices":[17,17,17,3,40,14,19,5,5,5,2,5,8,58,3,17,17,17,8,8,15,1,61,2,3,58,8,14,17,29,11,11,8,0,3,14,11,17,3,17,21,17,1,8,1,8,8,3,15,15,17,3,5,15,4,8,43,28,32,44,17,7,1,0,0,0,0,0,0,0,0,0,0,0,0,0,0,0,0,0,0,0,0,0,0,0,0,0,0,0,0,0,0,0,0,0,0,0,0,0,0,0,0,0,0,0,0,0,0,0,0,0,0,0,0,0,0,0,0,0,0,0,0,0,0,0,0],"split_type":[0,0,0,0,0,0,0,0,0,0,0,0,0,0,0,0,0,0,0,0,0,0,0,0,0,0,0,0,0,0,0,0,0,0,0,0,0,0,0,0,0,0,0,0,0,0,0,0,0,0,0,0,0,0,0,0,0,0,0,0,0,0,0,0,0,0,0,0,0,0,0,0,0,0,0,0,0,0,0,0,0,0,0,0,0,0,0,0,0,0,0,0,0,0,0,0,0,0,0,0,0,0,0,0,0,0,0,0,0,0,0,0,0,0,0,0,0,0,0,0,0,0,0,0,0,0,0],"sum_hessian":[3.88915E5,2.08771E5,1.80144E5,1.04789E5,1.03982E5,1.13071E5,6.7073E4,8.3287E4,2.1502E4,1.02156E5,1.826E3,4.6647E4,6.6424E4,5.2893E4,1.418E4,6.6218E4,1.7069E4,1.0808E4,1.0694E4,7.9157E4,2.2999E4,4.21E2,1.405E3,3.5551E4,1.1096E4,1.434E3,6.499E4,4.5838E4,7.055E3,1.2468E4,1.712E3,3.3392E4,3.2826E4,4.183E3,1.2886E4,2.027E3,8.781E3,1.22E2,1.0572E4,7.333E3,7.1824E4,8.09E2,2.219E4,2.87E2,1.34E2,9.41E2,4.64E2,2.942E3,3.2609E4,6.9E1,1.1027E4,1.189E3,2.45E2,1.9925E4,4.5065E4,4.526E3,4.1312E4,2.08E3,4.975E3,1.0341E4,2.127E3,6.79E2,1.033E3,1.8653E4,1.4739E4,6.556E3,2.627E4,1.076E3,3.107E3,1.097E3,1.1789E4,5.8E1,1.969E3,5.286E3,3.495E3,4.5E1,7.7E1,3.168E3,7.404E3,3.459E3,3.874E3,6.4797E4,7.027E3,7.67E2,4.2E1,2.1749E4,4.41E2,2.7E2,1.7E1,1.33E2,1E0,8.85E2,5.6E1,7.8E1,3.86E2,5.1E2,2.432E3,1.9068E4,1.3541E4,5.5E1,1.4E1,6.205E3,4.822E3,2.79E2,9.1E2,9.2E1,1.53E2,3.23E2,1.9602E4,2.9319E4,1.5746E4,2.845E3,1.681E3,3.7721E4,3.591E3,1.17E3,9.1E2,4.838E3,1.37E2,1.02E4,1.41E2,1.285E3,8.42E2,5.43E2,1.36E2,1.69E2,8.64E2],"tree_param":{"num_deleted":"0","num_feature":"68","num_nodes":"127","size_leaf_vector":"1"}},{"base_weights":[-1.3240881E-4,-8.744353E-1,1.8017329E0,-1.492671E0,-1.3629454E-2,-3.098324E0,2.0194645E0,3.8967025E-1,-1.6477363E0,1.04708694E-1,-5.6368885E0,1.267479E0,-3.8691475E0,1.567026E0,4.1467953E0,-5.915047E0,5.319019E-1,-2.0600321E0,-1.010468E0,3.425871E-1,-2.1453528E0,-4.840043E0,-1.7204483E1,-1.0549734E0,1.0664817E1,8.777638E0,-4.1208878E0,1.4497867E0,8.841366E0,4.4288836E0,-8.331238E0,2.5110416E0,-7.129984E0,1.8760109E0,-4.232779E-2,-1.6322241E0,-2.8151746E0,-8.0870306E-1,-2.5820093E0,5.387254E-1,-2.7564974E0,-1.9139807E0,-1.0113462E1,-5.3183403E0,1.4515427E0,-1.0893902E1,-5.8031435E0,-4.5525055E0,4.4433346E0,1.2788723E1,5.5638933E-1,5.3962827E0,1.963084E1,-4.9387836E0,-1.0906317E0,7.345752E-1,2.6841083E0,7.646262E0,1.4958091E1,5.26836E0,1.4033451E0,-1.1215198E1,-4.7107215E0,-8.462928E-2,3.3824594E0,-2.2504137E0,6.8189664E0,-9.188727E-2,1.1372012E0,2.9999106E0,-4.254348E-2,-8.090961E-1,-3.8386726E-1,-8.0728817E-1,-1.8315365E0,-1.2668829E-1,-4.4873515E-1,-2.0872724E-1,-1.0723814E0,3.6660913E-1,-5.4735433E-2,-1.0269206E0,1.3497493E0,-2.6346257E0,-5.18706E-1,-4.3343825E0,-1.1129107E0,-2.990727E0,-1.4529719E0,1.1052855E0,-1.6400845E0,-3.4053702E0,9.7270435E-1,-1.9279516E0,1.6632503E0,8.624515E-1,3.2840228E0,4.197737E0,1.4489641E0,1.8234904E0,-1.1096934E0,7.490393E-1,2.628419E0,6.330834E0,1.1294847E0,-1.1534804E0,-2.3830147E0,3.5785348E0,-5.3690773E-1,-1.5034344E0,2.7062926E-1,1.0817773E0,3.8712838E-1,3.2022498E0,1.384793E0,2.8624282E0,4.891615E0,1.5030518E0,3.9660435E0,1.0067843E0,-4.6081287E-1,-4.0575547E0,-2.4710393E0,-1.976835E0,4.411719E-1],"categories":[],"categories_nodes":[],"categories_segments":[],"categories_sizes":[],"default_left":[0,0,0,0,0,0,0,0,0,0,0,0,0,0,0,0,0,0,0,0,0,0,0,0,0,0,0,0,0,0,0,0,0,0,0,0,0,0,0,0,0,0,0,0,0,0,0,0,0,0,0,0,0,0,0,0,0,0,0,0,0,0,0,0,0,0,0,0,0,0,0,0,0,0,0,0,0,0,0,0,0,0,0,0,0,0,0,0,0,0,0,0,0,0,0,0,0,0,0,0,0,0,0,0,0,0,0,0,0,0,0,0,0,0,0,0,0,0,0,0,0,0,0,0,0],"id":6,"left_children":[1,3,5,7,9,11,13,15,17,19,21,23,25,27,29,31,33,35,37,39,41,43,45,47,49,51,53,55,57,59,61,63,65,67,69,71,73,75,77,79,81,83,85,87,89,91,-1,93,95,97,99,101,103,105,107,109,111,113,115,117,119,121,123,-1,-1,-1,-1,-1,-1,-1,-1,-1,-1,-1,-1,-1,-1,-1,-1,-1,-1,-1,-1,-1,-1,-1,-1,-1,-1,-1,-1,-1,-1,-1,-1,-1,-1,-1,-1,-1,-1,-1,-1,-1,-1,-1,-1,-1,-1,-1,-1,-1,-1,-1,-1,-1,-1,-1,-1,-1,-1,-1,-1,-1,-1],"loss_changes":[6.1269056E5,1.393558E5,1.355651E5,4.4484625E4,7.283831E4,1.8197516E4,1.1708381E5,1.0405218E4,3.6992938E4,5.737965E4,2.071161E4,1.7733045E4,1.4665297E4,8.554397E4,7.5134E4,2.6386182E3,8.756459E3,2.7613781E4,1.7536664E4,5.8934273E4,1.8877523E4,6.363254E3,1.746832E3,1.25585205E4,3.4494492E3,3.196935E3,1.11624375E4,8.7156984E4,1.1516023E4,5.298447E4,4.8755195E3,8.1097363E2,2.65462E3,1.419089E4,7.94362E3,2.0490188E4,1.2617641E4,1.301415E4,1.1779805E4,4.4933727E4,2.7926355E4,1.2639844E4,7.968162E3,4.2891133E3,2.337223E3,2.88938E2,0E0,7.585174E3,2.559475E3,1.2066016E3,7.039186E2,6.6112134E2,4.109746E2,1.1630242E4,8.749329E3,6.01768E4,4.652775E4,1.2181555E4,1.7345586E3,3.346422E4,2.6022105E4,1.691168E3,2.4600273E3,0E0,0E0,0E0,0E0,0E0,0E0,0E0,0E0,0E0,0E0,0E0,0E0,0E0,0E0,0E0,0E0,0E0,0E0,0E0,0E0,0E0,0E0,0E0,0E0,0E0,0E0,0E0,0E0,0E0,0E0,0E0,0E0,0E0,0E0,0E0,0E0,0E0,0E0,0E0,0E0,0E0,0E0,0E0,0E0,0E0,0E0,0E0,0E0,0E0,0E0,0E0,0E0,0E0,0E0,0E0,0E0,0E0,0E0,0E0,0E0,0E0,0E0],"parents":[2147483647,0,0,1,1,2,2,3,3,4,4,5,5,6,6,7,7,8,8,9,9,10,10,11,11,12,12,13,13,14,14,15,15,16,16,17,17,18,18,19,19,20,20,21,21,22,22,23,23,24,24,25,25,26,26,27,27,28,28,29,29,30,30,31,31,32,32,33,33,34,34,35,35,36,36,37,37,38,38,39,39,40,40,41,41,42,42,43,43,44,44,45,45,47,47,48,48,49,49,50,50,51,51,52,52,53,53,54,54,55,55,56,56,57,57,58,58,59,59,60,60,61,61,62,62],"right_children":[2,4,6,8,10,12,14,16,18,20,22,24,26,28,30,32,34,36,38,40,42,44,46,48,50,52,54,56,58,60,62,64,66,68,70,72,74,76,78,80,82,84,86,88,90,92,-1,94,96,98,100,102,104,106,108,110,112,114,116,118,120,122,124,-1,-1,-1,-1,-1,-1,-1,-1,-1,-1,-1,-1,-1,-1,-1,-1,-1,-1,-1,-1,-1,-1,-1,-1,-1,-1,-1,-1,-1,-1,-1,-1,-1,-1,-1,-1,-1,-1,-1,-1,-1,-1,-1,-1,-1,-1,-1,-1,-1,-1,-1,-1,-1,-1,-1,-1,-1,-1,-1,-1,-1,-1],"split_conditions":[1.102347E1,8.454041E0,4.4E1,1.65E2,1E0,1.1408265E1,1E0,5.3427E4,9E0,1E0,6.34E-1,1E0,1E0,1.5436666E1,1E0,7.2E1,1.272E5,1.52E-1,2.98314E5,1E0,1E0,1E0,1.0277841E1,3.22E-1,8.17E-1,1.2715853E1,1.1E1,6.67E-1,1E0,2.544E5,1.133552E1,8.62E-1,1E0,7.0012455E0,-2.7242E1,4.86E-1,8.410275E0,1.86E-1,1.04E-4,1.42E-1,1E0,1.098E5,8E0,1.19149E5,3.22E-1,2.0736E5,-5.8031435E0,1.1371339E1,1.1E1,2.87E-1,5E0,1.17E-1,5.17E-1,2.48869E5,1.2E1,8.316E4,2.19375E5,5.17E-2,3E0,1E0,5.13E-2,2.26351E5,6.52E-1,-8.462928E-2,3.3824594E0,-2.2504137E0,6.8189664E0,-9.188727E-2,1.1372012E0,2.9999106E0,-4.254348E-2,-8.090961E-1,-3.8386726E-1,-8.0728817E-1,-1.8315365E0,-1.2668829E-1,-4.4873515E-1,-2.0872724E-1,-1.0723814E0,3.6660913E-1,-5.4735433E-2,-1.0269206E0,1.3497493E0,-2.6346257E0,-5.18706E-1,-4.3343825E0,-1.1129107E0,-2.990727E0,-1.4529719E0,1.1052855E0,-1.6400845E0,-3.4053702E0,9.7270435E-1,-1.9279516E0,1.6632503E0,8.624515E-1,3.2840228E0,4.197737E0,1.4489641E0,1.8234904E0,-1.1096934E0,7.490393E-1,2.628419E0,6.330834E0,1.1294847E0,-1.1534804E0,-2.3830147E0,3.5785348E0,-5.3690773E-1,-1.5034344E0,2.7062926E-1,1.0817773E0,3.8712838E-1,3.2022498E0,1.384793E0,2.8624282E0,4.891615E0,1.5030518E0,3.9660435E0,1.0067843E0,-4.6081287E-1,-4.0575547E0,-2.4710393E0,-1.976835E0,4.411719E-1],"split_indices":[17,17,14,14,41,17,19,3,0,18,11,10,14,17,49,14,3,11,3,22,44,20,17,11,4,17,14,2,38,3,17,15,31,17,8,2,17,11,5,7,28,3,0,3,11,3,0,17,0,1,14,7,1,3,14,3,3,11,0,65,11,3,15,0,0,0,0,0,0,0,0,0,0,0,0,0,0,0,0,0,0,0,0,0,0,0,0,0,0,0,0,0,0,0,0,0,0,0,0,0,0,0,0,0,0,0,0,0,0,0,0,0,0,0,0,0,0,0,0,0,0,0,0,0,0],"split_type":[0,0,0,0,0,0,0,0,0,0,0,0,0,0,0,0,0,0,0,0,0,0,0,0,0,0,0,0,0,0,0,0,0,0,0,0,0,0,0,0,0,0,0,0,0,0,0,0,0,0,0,0,0,0,0,0,0,0,0,0,0,0,0,0,0,0,0,0,0,0,0,0,0,0,0,0,0,0,0,0,0,0,0,0,0,0,0,0,0,0,0,0,0,0,0,0,0,0,0,0,0,0,0,0,0,0,0,0,0,0,0,0,0,0,0,0,0,0,0,0,0,0,0,0,0],"sum_hessian":[3.88915E5,2.61857E5,1.27058E5,1.52401E5,1.09456E5,5.405E3,1.21653E5,1.1599E4,1.40802E5,1.07201E5,2.255E3,8.11E2,4.594E3,1.00319E5,2.1334E4,2.55E2,1.1344E4,8.549E4,5.5312E4,9.6952E4,1.0249E4,2.111E3,1.44E2,6.51E2,1.6E2,8.9E1,4.505E3,9.8729E4,1.59E3,2.0863E4,4.71E2,3.2E1,2.23E2,3.395E3,7.949E3,5.4575E4,3.0915E4,4.902E4,6.292E3,9.1182E4,5.77E3,9.961E3,2.88E2,1.962E3,1.49E2,3.8E1,1.06E2,3.98E2,2.53E2,1.32E2,2.8E1,6.9E1,2E1,3.547E3,9.58E2,6.251E4,3.6219E4,1.332E3,2.58E2,1.6331E4,4.532E3,2.61E2,2.1E2,2.5E1,7E0,2.21E2,2E0,1.587E3,1.808E3,7.7E1,7.872E3,1.3577E4,4.0998E4,2.9792E4,1.123E3,3.1376E4,1.7644E4,2.17E3,4.122E3,4.682E4,4.4362E4,5.285E3,4.85E2,2.6E2,9.701E3,1.71E2,1.17E2,1.8E2,1.782E3,1.13E2,3.6E1,3.7E1,1E0,3.36E2,6.2E1,2.05E2,4.8E1,1.14E2,1.8E1,1.2E1,1.6E1,3.8E1,3.1E1,1.8E1,2E0,2.602E3,9.45E2,4.8E1,9.1E2,1.77E3,6.074E4,2.1799E4,1.442E4,6.65E2,6.67E2,5.3E1,2.05E2,1.5819E4,5.12E2,2.723E3,1.809E3,1.45E2,1.16E2,1.61E2,4.9E1],"tree_param":{"num_deleted":"0","num_feature":"68","num_nodes":"125","size_leaf_vector":"1"}},{"base_weights":[-5.133501E-5,-5.505208E-1,1.5326447E0,-1.0749651E0,-6.9378794E-4,-2.8141E0,1.7768968E0,-1.0123022E0,-4.272062E0,4.7253E0,-1.00565486E-1,-3.1390066E0,7.9842916E0,1.599926E0,7.930146E0,-9.625113E-1,-4.928683E0,-4.351512E0,1.3187203E1,-5.91046E-1,6.8305607E0,-8.7926376E-1,6.533203E-1,-2.6742275E0,-8.745258E0,-7.984767E-1,5.1683087E0,1.9119135E0,-1.2423131E0,2.603041E0,8.765152E0,-7.4264395E-1,-1.646892E0,-5.4795394E0,-7.239509E-1,-2.6307995E0,-5.0219336E0,-2.0903206E0,9.407811E0,-5.5358424E0,1.1503644E0,7.883512E-1,8.245221E0,-3.0136603E-1,-1.8263777E0,1.245697E0,-5.996625E-1,-1.0500224E0,-4.055325E0,-7.400428E0,-8.952637E0,-1.3704742E1,3.516286E0,-2.6516333E0,2.113908E0,-2.662694E0,5.950867E-1,-3.070078E0,5.3721876E0,-3.228858E0,9.161804E0,-1.1690716E-1,-3.9812836E-1,-9.875627E-1,-3.577931E-1,-1.722705E0,1.787657E-1,-3.1378868E-1,6.553046E0,-1.0267985E0,1.4828416E0,-1.5405282E0,2.5759368E0,1.6577889E0,-2.329585E0,7.6921386E-1,-3.0321152E0,8.4917355E-1,-1.9702779E0,-3.0234048E-1,4.1269846E0,2.7513478E0,-3.9542186E-1,1.8652874E-1,-2.8600988E-1,1.8871098E0,-6.0326165E-1,-1.4575814E-1,5.720076E-1,-4.972882E-1,1.3005684E-1,-3.8301435E-1,4.138756E0,-1.1032045E0,-4.322432E0,-2.683703E0,4.2375833E-1,-5.2831416E0,2.1891673E0,1.4498591E0,-5.133437E0,-9.3599695E-1,9.904708E-1,5.8597636E-1,2.2624617E0,-9.767433E-1,4.919128E-1,7.2068685E-1,-4.076848E-1,-2.832783E0,-8.781253E-2,2.2855105E0,-8.6403054E-1,-2.4059393E0,7.8375673E-1,2.915126E0,1.1044043E0],"categories":[],"categories_nodes":[],"categories_segments":[],"categories_sizes":[],"default_left":[0,0,0,0,0,0,0,0,0,0,0,0,0,0,0,0,0,0,0,0,0,0,0,0,0,0,0,0,0,0,0,0,0,0,0,0,0,0,0,0,0,0,0,0,0,0,0,0,0,0,0,0,0,0,0,0,0,0,0,0,0,0,0,0,0,0,0,0,0,0,0,0,0,0,0,0,0,0,0,0,0,0,0,0,0,0,0,0,0,0,0,0,0,0,0,0,0,0,0,0,0,0,0,0,0,0,0,0,0,0,0,0,0,0,0,0,0],"id":7,"left_children":[1,3,5,7,9,11,13,15,17,19,21,23,25,27,29,31,33,35,37,39,41,43,45,47,49,51,-1,53,55,57,59,61,63,65,67,69,71,73,-1,75,77,79,81,83,85,87,89,91,93,95,-1,97,99,101,103,105,107,109,111,113,115,-1,-1,-1,-1,-1,-1,-1,-1,-1,-1,-1,-1,-1,-1,-1,-1,-1,-1,-1,-1,-1,-1,-1,-1,-1,-1,-1,-1,-1,-1,-1,-1,-1,-1,-1,-1,-1,-1,-1,-1,-1,-1,-1,-1,-1,-1,-1,-1,-1,-1,-1,-1,-1,-1,-1,-1],"loss_changes":[3.2813016E5,8.251153E4,1.0911611E5,2.9336188E4,6.593506E4,1.9209363E4,1.0594503E5,2.800511E4,3.9621797E3,3.236096E4,8.03113E4,1.3810109E4,1.3002982E4,8.387408E4,1.2076172E4,2.1341547E4,4.1721445E3,3.2203398E3,3.6746858E3,7.075934E3,1.7695727E4,3.6832363E4,5.1593703E4,1.099632E4,1.1298066E4,4.67025E3,0E0,7.857066E4,2.4418941E4,5.829081E3,1.1214344E4,2.2144465E4,2.5765828E4,2.5485352E3,1.5489114E3,4.742752E3,3.148586E3,3.8868768E2,0E0,7.949537E3,7.9030234E3,9.191299E3,1.48708125E4,2.5156166E4,3.8200227E4,5.402028E4,2.4391562E4,7.6066846E3,1.0316762E4,5.2284062E3,0E0,1.8510952E3,1.7936532E3,1.0084141E4,7.115272E4,1.3471336E4,1.4411129E4,2.156499E3,4.6374395E3,2.147865E3,6.890578E3,0E0,0E0,0E0,0E0,0E0,0E0,0E0,0E0,0E0,0E0,0E0,0E0,0E0,0E0,0E0,0E0,0E0,0E0,0E0,0E0,0E0,0E0,0E0,0E0,0E0,0E0,0E0,0E0,0E0,0E0,0E0,0E0,0E0,0E0,0E0,0E0,0E0,0E0,0E0,0E0,0E0,0E0,0E0,0E0,0E0,0E0,0E0,0E0,0E0,0E0,0E0,0E0,0E0,0E0,0E0,0E0],"parents":[2147483647,0,0,1,1,2,2,3,3,4,4,5,5,6,6,7,7,8,8,9,9,10,10,11,11,12,12,13,13,14,14,15,15,16,16,17,17,18,18,19,19,20,20,21,21,22,22,23,23,24,24,25,25,27,27,28,28,29,29,30,30,31,31,32,32,33,33,34,34,35,35,36,36,37,37,39,39,40,40,41,41,42,42,43,43,44,44,45,45,46,46,47,47,48,48,49,49,51,51,52,52,53,53,54,54,55,55,56,56,57,57,58,58,59,59,60,60],"right_children":[2,4,6,8,10,12,14,16,18,20,22,24,26,28,30,32,34,36,38,40,42,44,46,48,50,52,-1,54,56,58,60,62,64,66,68,70,72,74,-1,76,78,80,82,84,86,88,90,92,94,96,-1,98,100,102,104,106,108,110,112,114,116,-1,-1,-1,-1,-1,-1,-1,-1,-1,-1,-1,-1,-1,-1,-1,-1,-1,-1,-1,-1,-1,-1,-1,-1,-1,-1,-1,-1,-1,-1,-1,-1,-1,-1,-1,-1,-1,-1,-1,-1,-1,-1,-1,-1,-1,-1,-1,-1,-1,-1,-1,-1,-1,-1,-1,-1],"split_conditions":[1.1561887E1,8.307953E0,1.15357E5,1E0,-2.5051E1,1E0,1E0,1E0,1E0,7.91E-1,6.52E-1,1E0,1E0,4.37E-1,1.1874801E1,1E0,1E0,8.36E-5,1.82E-2,1.7E2,1.7E2,7.09E-4,2.208E5,1.29E-1,1E0,6.16E-1,5.1683087E0,4.8E1,-6.388E0,-1.0847E1,9.6E1,2.242E5,1.9459101E0,3.62E-1,1E0,1E0,1E0,4.77E-1,9.407811E0,1.66E2,1E0,1.2E1,1E0,1.42E-1,2.87E-2,-1.0506E1,1.07E-1,1E0,1E0,1E0,-8.952637E0,1.04227E5,2.97E-1,1E0,1E0,1E0,8.96E-1,2.68E-1,1.1E1,1.2933078E1,1E0,-1.1690716E-1,-3.9812836E-1,-9.875627E-1,-3.577931E-1,-1.722705E0,1.787657E-1,-3.1378868E-1,6.553046E0,-1.0267985E0,1.4828416E0,-1.5405282E0,2.5759368E0,1.6577889E0,-2.329585E0,7.6921386E-1,-3.0321152E0,8.4917355E-1,-1.9702779E0,-3.0234048E-1,4.1269846E0,2.7513478E0,-3.9542186E-1,1.8652874E-1,-2.8600988E-1,1.8871098E0,-6.0326165E-1,-1.4575814E-1,5.720076E-1,-4.972882E-1,1.3005684E-1,-3.8301435E-1,4.138756E0,-1.1032045E0,-4.322432E0,-2.683703E0,4.2375833E-1,-5.2831416E0,2.1891673E0,1.4498591E0,-5.133437E0,-9.3599695E-1,9.904708E-1,5.8597636E-1,2.2624617E0,-9.767433E-1,4.919128E-1,7.2068685E-1,-4.076848E-1,-2.832783E0,-8.781253E-2,2.2855105E0,-8.6403054E-1,-2.4059393E0,7.8375673E-1,2.915126E0,1.1044043E0],"split_indices":[17,17,3,18,8,60,48,22,42,5,2,22,19,7,17,10,19,5,1,14,14,5,3,7,33,1,0,14,8,8,14,3,17,11,48,21,53,15,0,14,58,0,58,7,15,8,1,57,26,24,0,3,11,37,47,10,4,1,0,17,39,0,0,0,0,0,0,0,0,0,0,0,0,0,0,0,0,0,0,0,0,0,0,0,0,0,0,0,0,0,0,0,0,0,0,0,0,0,0,0,0,0,0,0,0,0,0,0,0,0,0,0,0,0,0,0,0],"split_type":[0,0,0,0,0,0,0,0,0,0,0,0,0,0,0,0,0,0,0,0,0,0,0,0,0,0,0,0,0,0,0,0,0,0,0,0,0,0,0,0,0,0,0,0,0,0,0,0,0,0,0,0,0,0,0,0,0,0,0,0,0,0,0,0,0,0,0,0,0,0,0,0,0,0,0,0,0,0,0,0,0,0,0,0,0,0,0,0,0,0,0,0,0,0,0,0,0,0,0,0,0,0,0,0,0,0,0,0,0,0,0,0,0,0,0,0,0],"sum_hessian":[3.88915E5,2.86146E5,1.02769E5,1.46453E5,1.39693E5,5.467E3,9.7302E4,1.43639E5,2.814E3,2.89E3,1.36803E5,5.308E3,1.59E2,9.4583E4,2.719E3,1.41837E5,1.802E3,2.802E3,1.2E1,8.2E2,2.07E3,6.7294E4,6.9509E4,4.903E3,4.05E2,8.2E1,7.7E1,8.5228E4,9.355E3,3.69E2,2.35E3,1.07351E5,3.4486E4,1.593E3,2.09E2,7.87E2,2.015E3,7E0,5E0,2.13E2,6.07E2,3.93E2,1.677E3,4.1794E4,2.55E4,4.7196E4,2.2313E4,2.254E3,2.649E3,3.82E2,2.3E1,2E1,6.2E1,3.612E3,8.1616E4,5.276E3,4.079E3,1.21E2,2.48E2,7.5E1,2.275E3,6.6932E4,4.0419E4,7.461E3,2.7025E4,1.527E3,6.6E1,2.07E2,2E0,7.13E2,7.4E1,1.999E3,1.6E1,3E0,4E0,7.7E1,1.36E2,4.99E2,1.08E2,3.46E2,4.7E1,1.529E3,1.48E2,1.73E4,2.4494E4,5.66E2,2.4934E4,1.3039E4,3.4157E4,1.1024E4,1.1289E4,2.221E3,3.3E1,2.557E3,9.2E1,3.25E2,5.7E1,1.7E1,3E0,5.9E1,3E0,3.349E3,2.63E2,7.9271E4,2.345E3,4.637E3,6.39E2,2.119E3,1.96E3,3.6E1,8.5E1,1.95E2,5.3E1,4.1E1,3.4E1,2.065E3,2.1E2],"tree_param":{"num_deleted":"0","num_feature":"68","num_nodes":"117","size_leaf_vector":"1"}},{"base_weights":[-1.9739178E-5,-6.8323386E-1,6.206323E-1,-6.3140625E-1,-4.1586494E0,4.7613186E-1,3.9065983E0,-5.879966E-1,-4.345818E0,-5.991585E0,-3.4291744E0,5.7459503E-1,-4.0986805E0,3.601696E0,1.3577575E1,-5.2082074E-1,-3.1142857E0,-4.757218E0,5.7437034E0,-4.8941846E0,-8.254329E0,-4.306297E0,-1.8627295E0,8.838487E-1,-8.168449E-1,-2.9935255E0,-1.5935146E1,3.322469E0,1.0333597E1,8.99797E0,1.5168221E1,-1.0026779E0,-1.6603449E-1,-3.5987198E0,5.921891E0,-4.0088677E0,-8.5476055E0,-3.6046214E0,2.6305926E0,3.9149973E0,-5.1441717E0,-7.309131E0,-1.5825265E1,-3.8937764E0,-7.981228E0,-9.290432E-1,-4.540011E0,1.9650987E0,2.3120593E-1,-1.3518101E0,1.355465E0,-3.6994407E0,3.4512556E0,-9.594885E0,-2.8060192E1,1.4478118E0,4.1709466E0,8.090692E-1,1.3120826E1,1.0961347E1,5.0254383E0,1.0200297E1,1.5747719E1,-3.0213038E-2,-4.202285E-1,6.6858417E-1,-8.171095E-2,-1.5778766E0,-6.2840617E-1,3.7591955E-1,3.5471413E0,-1.682877E0,-8.3688587E-1,-1.85151E0,-3.005929E0,-2.527516E0,-4.715012E-1,2.9142962E0,-1.9209121E0,-1.7075108E0,-3.0889776E-1,-1.3095369E0,-2.9968107E0,-1.7977362E0,-5.8950014E0,-1.2088938E0,2.1499665E0,-1.3946927E0,-3.4203448E0,1.6180556E0,-4.3129113E-1,2.6486077E0,-1.4444776E0,3.4396088E-1,9.25168E-1,2.5730762E-1,-2.1009709E-1,-3.7010986E-1,-2.8146982E0,7.6427144E-1,-5.2124524E-1,-2.254441E0,-8.032766E-1,-5.807376E-1,2.0131214E0,-9.460553E-1,-4.674165E0,-6.5710177E0,-1.0155581E1,1.9802618E-1,1.5239383E0,1.0009435E0,1.7664454E0,-1.7755497E0,1.6725415E0,4.3464556E0,2.5237951E0,2.8720465E0,6.1281247E0,2.0496447E0,4.896476E-1,3.6266265E0,-5.376186E-1,1.2628444E0,4.7786107E0],"categories":[],"categories_nodes":[],"categories_segments":[],"categories_sizes":[],"default_left":[0,0,0,0,0,0,0,0,0,0,0,0,0,0,0,0,0,0,0,0,0,0,0,0,0,0,0,0,0,0,0,0,0,0,0,0,0,0,0,0,0,0,0,0,0,0,0,0,0,0,0,0,0,0,0,0,0,0,0,0,0,0,0,0,0,0,0,0,0,0,0,0,0,0,0,0,0,0,0,0,0,0,0,0,0,0,0,0,0,0,0,0,0,0,0,0,0,0,0,0,0,0,0,0,0,0,0,0,0,0,0,0,0,0,0,0,0,0,0,0,0,0,0,0,0],"id":8,"left_children":[1,3,5,7,9,11,13,15,17,19,21,23,25,27,29,31,33,35,37,39,41,43,45,47,49,51,53,55,57,59,61,63,65,67,69,71,73,75,-1,77,79,81,83,85,87,89,91,93,95,97,99,101,103,105,107,109,111,113,115,117,119,121,123,-1,-1,-1,-1,-1,-1,-1,-1,-1,-1,-1,-1,-1,-1,-1,-1,-1,-1,-1,-1,-1,-1,-1,-1,-1,-1,-1,-1,-1,-1,-1,-1,-1,-1,-1,-1,-1,-1,-1,-1,-1,-1,-1,-1,-1,-1,-1,-1,-1,-1,-1,-1,-1,-1,-1,-1,-1,-1,-1,-1,-1,-1],"loss_changes":[1.6491567E5,3.3343055E4,9.676196E4,2.9409336E4,3.6163164E3,8.793303E4,2.5262766E4,3.0596797E4,8.773117E3,1.8790645E3,2.668459E3,8.222997E4,5.3754984E4,1.5610648E4,1.7720625E3,3.0025578E4,2.0463914E4,5.709715E3,2.3786904E3,1.1718809E3,1.6804961E3,1.8608711E3,1.7481006E3,1.10328234E5,4.0384E4,1.7132422E4,2.6714227E4,1.2707648E4,8.776457E3,4.9088525E2,3.949961E2,2.6742188E4,2.5758543E4,1.1062621E4,6.5432754E3,3.288541E3,1.1028984E3,1.9255225E2,0E0,9.597656E2,1.1408262E3,1.7317891E3,8.976621E2,1.7179805E3,1.3715015E3,1.68309E3,7.0773047E2,5.3890562E4,5.6899492E4,2.6435168E4,2.5323906E4,1.3204391E4,6.5442627E3,8.895826E3,3.5375703E3,7.1262627E3,7.8644688E3,2.4698643E3,1.5261797E3,4.0874756E2,1.421156E2,5.4254614E2,2.9003516E2,0E0,0E0,0E0,0E0,0E0,0E0,0E0,0E0,0E0,0E0,0E0,0E0,0E0,0E0,0E0,0E0,0E0,0E0,0E0,0E0,0E0,0E0,0E0,0E0,0E0,0E0,0E0,0E0,0E0,0E0,0E0,0E0,0E0,0E0,0E0,0E0,0E0,0E0,0E0,0E0,0E0,0E0,0E0,0E0,0E0,0E0,0E0,0E0,0E0,0E0,0E0,0E0,0E0,0E0,0E0,0E0,0E0,0E0,0E0,0E0,0E0,0E0],"parents":[2147483647,0,0,1,1,2,2,3,3,4,4,5,5,6,6,7,7,8,8,9,9,10,10,11,11,12,12,13,13,14,14,15,15,16,16,17,17,18,18,19,19,20,20,21,21,22,22,23,23,24,24,25,25,26,26,27,27,28,28,29,29,30,30,31,31,32,32,33,33,34,34,35,35,36,36,37,37,39,39,40,40,41,41,42,42,43,43,44,44,45,45,46,46,47,47,48,48,49,49,50,50,51,51,52,52,53,53,54,54,55,55,56,56,57,57,58,58,59,59,60,60,61,61,62,62],"right_children":[2,4,6,8,10,12,14,16,18,20,22,24,26,28,30,32,34,36,38,40,42,44,46,48,50,52,54,56,58,60,62,64,66,68,70,72,74,76,-1,78,80,82,84,86,88,90,92,94,96,98,100,102,104,106,108,110,112,114,116,118,120,122,124,-1,-1,-1,-1,-1,-1,-1,-1,-1,-1,-1,-1,-1,-1,-1,-1,-1,-1,-1,-1,-1,-1,-1,-1,-1,-1,-1,-1,-1,-1,-1,-1,-1,-1,-1,-1,-1,-1,-1,-1,-1,-1,-1,-1,-1,-1,-1,-1,-1,-1,-1,-1,-1,-1,-1,-1,-1,-1,-1,-1,-1,-1],"split_conditions":[9.254262E0,1E0,1E0,1E0,5.39E-2,1E0,1E0,1E0,9.34E-1,8.871506E0,-6.352E0,2.3E-1,1E0,1E0,5E0,5.5645204E0,1E0,8.736489E0,1.15357E5,5.1119876E0,1E0,9.160729E0,1.24E-1,1.54E-5,1E0,1.3935565E1,1.3997694E1,-8.229E0,1.2124852E1,1.1371339E1,2.16E-1,1.52907E5,4E0,1.64E5,-5.592E0,5.59E-1,1E0,1E0,2.6305926E0,1.99E-3,8.62533E0,1E0,9.09347E0,1E0,6.69E-1,3.25E-1,7.3173E1,1.1996524E1,1.26148E2,1E0,1.9388E5,-1.3251E1,1.69E2,1E0,-1.0191E1,8.53E-1,7.9E-1,1.75E5,1E0,4E0,1.27376E2,1.2E1,3.68E-1,-3.0213038E-2,-4.202285E-1,6.6858417E-1,-8.171095E-2,-1.5778766E0,-6.2840617E-1,3.7591955E-1,3.5471413E0,-1.682877E0,-8.3688587E-1,-1.85151E0,-3.005929E0,-2.527516E0,-4.715012E-1,2.9142962E0,-1.9209121E0,-1.7075108E0,-3.0889776E-1,-1.3095369E0,-2.9968107E0,-1.7977362E0,-5.8950014E0,-1.2088938E0,2.1499665E0,-1.3946927E0,-3.4203448E0,1.6180556E0,-4.3129113E-1,2.6486077E0,-1.4444776E0,3.4396088E-1,9.25168E-1,2.5730762E-1,-2.1009709E-1,-3.7010986E-1,-2.8146982E0,7.6427144E-1,-5.2124524E-1,-2.254441E0,-8.032766E-1,-5.807376E-1,2.0131214E0,-9.460553E-1,-4.674165E0,-6.5710177E0,-1.0155581E1,1.9802618E-1,1.5239383E0,1.0009435E0,1.7664454E0,-1.7755497E0,1.6725415E0,4.3464556E0,2.5237951E0,2.8720465E0,6.1281247E0,2.0496447E0,4.896476E-1,3.6266265E0,-5.376186E-1,1.2628444E0,4.7786107E0],"split_indices":[17,34,43,35,1,35,67,28,11,17,8,11,33,19,0,17,19,17,3,17,28,17,11,5,28,17,17,8,17,17,15,3,14,3,8,2,32,24,0,1,17,19,17,52,15,15,12,17,12,40,3,8,14,18,8,2,2,3,18,0,12,0,2,0,0,0,0,0,0,0,0,0,0,0,0,0,0,0,0,0,0,0,0,0,0,0,0,0,0,0,0,0,0,0,0,0,0,0,0,0,0,0,0,0,0,0,0,0,0,0,0,0,0,0,0,0,0,0,0,0,0,0,0,0,0],"split_type":[0,0,0,0,0,0,0,0,0,0,0,0,0,0,0,0,0,0,0,0,0,0,0,0,0,0,0,0,0,0,0,0,0,0,0,0,0,0,0,0,0,0,0,0,0,0,0,0,0,0,0,0,0,0,0,0,0,0,0,0,0,0,0,0,0,0,0,0,0,0,0,0,0,0,0,0,0,0,0,0,0,0,0,0,0,0,0,0,0,0,0,0,0,0,0,0,0,0,0,0,0,0,0,0,0,0,0,0,0,0,0,0,0,0,0,0,0,0,0,0,0,0,0,0,0],"sum_hessian":[3.88915E5,1.85127E5,2.03788E5,1.82408E5,2.719E3,1.95205E5,8.583E3,1.80302E5,2.106E3,7.72E2,1.947E3,1.91093E5,4.112E3,8.322E3,2.61E2,1.75633E5,4.669E3,2.024E3,8.2E1,5.22E2,2.5E2,1.247E3,7E2,1.56345E5,3.4748E4,3.762E3,3.5E2,7.992E3,3.3E2,6.9E1,1.92E2,7.4478E4,1.01155E5,4.432E3,2.37E2,1.692E3,3.32E2,2E1,6.2E1,1.4E1,5.08E2,2.24E2,2.6E1,1.123E3,1.24E2,5.2E2,1.8E2,5.8848E4,9.7497E4,2.7882E4,6.866E3,3.391E3,3.71E2,2.31E2,1.19E2,2.491E3,5.501E3,7.5E1,2.55E2,4.5E1,2.4E1,2.2E1,1.7E2,2.2806E4,5.1672E4,4.3E3,9.6855E4,2.105E3,2.327E3,1.33E2,1.04E2,7.3E2,9.62E2,1.29E2,2.03E2,5E0,1.5E1,9E0,5E0,4.48E2,6E1,1.08E2,1.16E2,8E0,1.8E1,1.11E3,1.3E1,6.4E1,6E1,3.8E1,4.82E2,3E0,1.77E2,3.3985E4,2.4863E4,5.8293E4,3.9204E4,2.7479E4,4.03E2,4.956E3,1.91E3,7.15E2,2.676E3,1.4E2,2.31E2,1.12E2,1.19E2,6E1,5.9E1,2.048E3,4.43E2,3.704E3,1.797E3,3.1E1,4.4E1,1.96E2,5.9E1,4.1E1,4E0,1.5E1,9E0,1.9E1,3E0,3E0,1.67E2],"tree_param":{"num_deleted":"0","num_feature":"68","num_nodes":"125","size_leaf_vector":"1"}},{"base_weights":[-4.9999406E-5,-2.8321522E-1,8.381232E-1,-5.5017245E-1,3.6327648E-1,6.4179474E-1,4.352529E0,-4.8914543E-1,-4.0805764E0,7.149921E-1,-7.6324064E-1,4.3552235E-1,3.705154E0,5.8726554E0,1.0762655E0,1.9150591E0,-5.752338E-1,-5.8795505E0,-2.9556801E0,1.2635065E0,-1.0721432E-1,1.1476711E-1,-1.5848442E0,2.9735595E-1,5.148591E0,2.8303607E0,6.9545217E0,-4.89572E0,6.3130364E0,2.7218478E0,-1.3974867E0,-7.0189863E-1,3.5172553E0,-1.4919741E0,-3.7892437E-1,-6.7419877E0,-3.7754278E0,-3.9325898E0,-5.502159E-1,1.7569174E0,1.0139265E-1,-1.7208115E0,1.0886877E-1,-2.2828288E0,3.7830994E-1,-4.8306067E-2,-2.4132316E0,1.6367719E-1,4.9412837E0,5.792303E0,2.0524585E-1,-9.054778E-1,3.5861151E0,-1.09844E-1,7.505564E0,-1.3102664E1,-1.4819156E0,7.7046523E0,3.331962E0,2.1781468E0,1.2292974E1,2.6502607E0,-2.1434839E0,4.5612285E-1,-5.975305E-1,-4.5466945E-1,1.401526E0,-2.3891E0,-4.126284E-1,-2.1029858E-2,-3.30285E-1,-1.6176579E0,-2.4108062E0,-1.2271442E0,2.2612088E0,-2.6431544E0,-1.0646365E0,1.6594915E-1,-2.0532727E0,3.4464347E-1,8.2190925E-1,5.127289E-2,-2.756516E0,-7.2062945E-1,3.1947333E-1,7.076051E-2,-9.795304E-1,2.114892E0,-7.1923953E-1,1.3441059E-1,-2.9378378E0,1.6861988E-2,-3.5687768E0,-6.6770035E-1,-1.7005426E0,8.6848386E-2,-1.3580439E0,2.4595909E-1,1.9053628E0,1.9267889E0,3.160326E-1,-4.1131404E-1,3.7138412E0,-9.028188E-1,9.2158294E-1,1.178496E0,-1.1245086E0,2.1395507E0,-1.561142E0,3.063078E0,1.9513282E0,-4.2261643E0,3.9418986E0,-2.2107224E0,-5.6198407E-2,-2.2230809E0,2.4202437E0,1.3692927E0,-8.585398E-1,2.146196E0,4.2552418E-1,4.571102E0,-1.8515515E0,1.1124716E0,-4.521526E0,-1.3421774E-1,-1.4518116E0],"categories":[],"categories_nodes":[],"categories_segments":[],"categories_sizes":[],"default_left":[0,0,0,0,0,0,0,0,0,0,0,0,0,0,0,0,0,0,0,0,0,0,0,0,0,0,0,0,0,0,0,0,0,0,0,0,0,0,0,0,0,0,0,0,0,0,0,0,0,0,0,0,0,0,0,0,0,0,0,0,0,0,0,0,0,0,0,0,0,0,0,0,0,0,0,0,0,0,0,0,0,0,0,0,0,0,0,0,0,0,0,0,0,0,0,0,0,0,0,0,0,0,0,0,0,0,0,0,0,0,0,0,0,0,0,0,0,0,0,0,0,0,0,0,0,0,0],"id":9,"left_children":[1,3,5,7,9,11,13,15,17,19,21,23,25,27,29,31,33,35,37,39,41,43,45,47,49,51,53,55,57,59,61,63,65,67,69,71,73,75,77,79,81,83,85,87,89,91,93,95,97,99,101,103,105,107,109,111,113,115,117,119,121,123,125,-1,-1,-1,-1,-1,-1,-1,-1,-1,-1,-1,-1,-1,-1,-1,-1,-1,-1,-1,-1,-1,-1,-1,-1,-1,-1,-1,-1,-1,-1,-1,-1,-1,-1,-1,-1,-1,-1,-1,-1,-1,-1,-1,-1,-1,-1,-1,-1,-1,-1,-1,-1,-1,-1,-1,-1,-1,-1,-1,-1,-1,-1,-1,-1],"loss_changes":[9.230615E4,5.0171883E4,6.776063E4,4.432622E4,3.366286E4,5.877393E4,2.58715E4,4.186204E4,7.057328E3,2.9200066E4,1.4582764E4,5.674882E4,1.6660258E4,1.6860938E4,6.7124204E3,2.931908E4,3.513953E4,2.4134727E3,5.057217E3,2.226895E4,9.034255E3,6.176121E3,1.3292244E4,5.2560625E4,7.8967656E3,1.3061367E4,4.843422E3,3.9029492E3,1.412075E4,5.125017E3,1.9956025E3,7.616419E3,2.5206684E4,2.5963914E4,3.5860367E4,1.6195039E3,1.4315337E3,2.835004E3,4.330335E3,1.6289555E4,7.4773193E3,5.8100596E3,9.792261E3,1.0525049E3,6.249461E3,4.531339E3,4.130078E3,4.8570266E4,1.3760797E4,6.55275E3,5.524543E3,6.528047E3,9.670273E3,3.393997E3,3.0583516E3,1.2444131E3,7.6076385E2,1.2804828E4,8.309984E3,3.5357817E3,2.9751743E3,1.9870876E3,2.5447026E3,0E0,0E0,0E0,0E0,0E0,0E0,0E0,0E0,0E0,0E0,0E0,0E0,0E0,0E0,0E0,0E0,0E0,0E0,0E0,0E0,0E0,0E0,0E0,0E0,0E0,0E0,0E0,0E0,0E0,0E0,0E0,0E0,0E0,0E0,0E0,0E0,0E0,0E0,0E0,0E0,0E0,0E0,0E0,0E0,0E0,0E0,0E0,0E0,0E0,0E0,0E0,0E0,0E0,0E0,0E0,0E0,0E0,0E0,0E0,0E0,0E0,0E0,0E0,0E0],"parents":[2147483647,0,0,1,1,2,2,3,3,4,4,5,5,6,6,7,7,8,8,9,9,10,10,11,11,12,12,13,13,14,14,15,15,16,16,17,17,18,18,19,19,20,20,21,21,22,22,23,23,24,24,25,25,26,26,27,27,28,28,29,29,30,30,31,31,32,32,33,33,34,34,35,35,36,36,37,37,38,38,39,39,40,40,41,41,42,42,43,43,44,44,45,45,46,46,47,47,48,48,49,49,50,50,51,51,52,52,53,53,54,54,55,55,56,56,57,57,58,58,59,59,60,60,61,61,62,62],"right_children":[2,4,6,8,10,12,14,16,18,20,22,24,26,28,30,32,34,36,38,40,42,44,46,48,50,52,54,56,58,60,62,64,66,68,70,72,74,76,78,80,82,84,86,88,90,92,94,96,98,100,102,104,106,108,110,112,114,116,118,120,122,124,126,-1,-1,-1,-1,-1,-1,-1,-1,-1,-1,-1,-1,-1,-1,-1,-1,-1,-1,-1,-1,-1,-1,-1,-1,-1,-1,-1,-1,-1,-1,-1,-1,-1,-1,-1,-1,-1,-1,-1,-1,-1,-1,-1,-1,-1,-1,-1,-1,-1,-1,-1,-1,-1,-1,-1,-1,-1,-1,-1,-1,-1,-1,-1,-1],"split_conditions":[1.1687634E1,7.32E-1,1E0,1E0,2.37467E5,1.5222719E1,2.4992E5,-2.4204E1,4.39E-1,1.94E-1,1.22024E2,1E0,1E0,1.15357E5,1.25936E2,7.77E-1,4.43E-1,1.66483E2,1E0,1.28052E2,1.9459101E0,2.8903718E0,7.09E-4,1E0,1E0,1.81773E5,3.28E-1,1.18E-1,1.27975E2,1.4680672E1,3.93E-2,5.24E-1,9.106E4,3.3556E4,6.49E-1,1E0,1.1561887E1,1.098E5,1.1256368E1,-6.628E0,1E0,9.07E-4,1E0,3.88E-2,1E0,1E0,1E0,1E0,1.2654853E1,4.99E-1,1E0,-6.558E0,2.25E-1,9.41E-1,5.93E-1,2.97E-1,1.2654853E1,3.49E-1,1E0,3.6E-2,-4.845E0,1.5436666E1,1E0,4.5612285E-1,-5.975305E-1,-4.5466945E-1,1.401526E0,-2.3891E0,-4.126284E-1,-2.1029858E-2,-3.30285E-1,-1.6176579E0,-2.4108062E0,-1.2271442E0,2.2612088E0,-2.6431544E0,-1.0646365E0,1.6594915E-1,-2.0532727E0,3.4464347E-1,8.2190925E-1,5.127289E-2,-2.756516E0,-7.2062945E-1,3.1947333E-1,7.076051E-2,-9.795304E-1,2.114892E0,-7.1923953E-1,1.3441059E-1,-2.9378378E0,1.6861988E-2,-3.5687768E0,-6.6770035E-1,-1.7005426E0,8.6848386E-2,-1.3580439E0,2.4595909E-1,1.9053628E0,1.9267889E0,3.160326E-1,-4.1131404E-1,3.7138412E0,-9.028188E-1,9.2158294E-1,1.178496E0,-1.1245086E0,2.1395507E0,-1.561142E0,3.063078E0,1.9513282E0,-4.2261643E0,3.9418986E0,-2.2107224E0,-5.6198407E-2,-2.2230809E0,2.4202437E0,1.3692927E0,-8.585398E-1,2.146196E0,4.2552418E-1,4.571102E0,-1.8515515E0,1.1124716E0,-4.521526E0,-1.3421774E-1,-1.4518116E0],"split_indices":[17,2,27,40,3,17,3,8,2,11,12,48,10,3,12,5,2,12,28,12,17,17,5,47,38,3,2,1,12,17,11,1,3,3,15,61,17,3,17,8,54,5,18,7,48,48,29,56,17,5,21,8,11,4,4,11,17,2,30,11,8,17,29,0,0,0,0,0,0,0,0,0,0,0,0,0,0,0,0,0,0,0,0,0,0,0,0,0,0,0,0,0,0,0,0,0,0,0,0,0,0,0,0,0,0,0,0,0,0,0,0,0,0,0,0,0,0,0,0,0,0,0,0,0,0,0,0],"split_type":[0,0,0,0,0,0,0,0,0,0,0,0,0,0,0,0,0,0,0,0,0,0,0,0,0,0,0,0,0,0,0,0,0,0,0,0,0,0,0,0,0,0,0,0,0,0,0,0,0,0,0,0,0,0,0,0,0,0,0,0,0,0,0,0,0,0,0,0,0,0,0,0,0,0,0,0,0,0,0,0,0,0,0,0,0,0,0,0,0,0,0,0,0,0,0,0,0,0,0,0,0,0,0,0,0,0,0,0,0,0,0,0,0,0,0,0,0,0,0,0,0,0,0,0,0,0,0],"sum_hessian":[3.88915E5,2.90705E5,9.821E4,2.05746E5,8.4959E4,9.3015E4,5.195E3,2.02251E5,3.495E3,6.4745E4,2.0214E4,8.7148E4,5.867E3,3.548E3,1.647E3,6.991E3,1.9526E5,1.343E3,2.152E3,3.8836E4,2.5909E4,9.772E3,1.0442E4,8.4667E4,2.481E3,4.624E3,1.243E3,1.39E2,3.409E3,9.89E2,6.58E2,2.655E3,4.336E3,3.4437E4,1.60823E5,9.51E2,3.92E2,1.53E3,6.22E2,2.7261E4,1.1575E4,3.059E3,2.285E4,9.67E2,8.805E3,3.658E3,6.784E3,8.2299E4,2.368E3,2.195E3,2.86E2,7.78E2,3.846E3,9E1,1.153E3,4E1,9.9E1,2.323E3,1.086E3,9.37E2,5.2E1,1.02E2,5.56E2,9.75E2,1.68E3,8.09E2,3.527E3,6.08E2,3.3829E4,1.12644E5,4.8179E4,4.68E2,4.83E2,3.82E2,1E1,1.1E2,1.42E3,5.3E2,9.2E1,1.6842E4,1.0419E4,1.149E4,8.5E1,2.458E3,6.01E2,2.2022E4,8.28E2,1.1E1,9.56E2,8.746E3,5.9E1,3.627E3,3.1E1,6.416E3,3.68E2,8.015E4,2.149E3,6.04E2,1.764E3,1.937E3,2.58E2,2.54E2,3.2E1,5.09E2,2.69E2,3.675E3,1.71E2,3.7E1,5.3E1,3.09E2,8.44E2,3.9E1,1E0,1.7E1,8.2E1,5.4E1,2.269E3,9.06E2,1.8E2,1.23E2,8.14E2,4.5E1,7E0,9.7E1,5E0,3.42E2,2.14E2],"tree_param":{"num_deleted":"0","num_feature":"68","num_nodes":"127","size_leaf_vector":"1"}},{"base_weights":[-6.236813E-5,-3.4457538E-1,5.370048E-1,-8.185163E-2,-1.551376E0,1.2775815E0,-5.459554E-1,3.6350567E-2,-2.1505003E0,4.656781E0,-1.6900834E0,9.8213464E-2,1.7468247E0,-1.8984179E-1,-1.9824469E0,-4.3238932E-1,5.685941E-1,-2.7995577E0,3.1593747E0,5.8588085E0,-7.4618564E0,-2.7665875E0,-1.0826192E0,-1.3167639E0,4.7623843E-1,1.9120325E0,-1.0263797E0,-1.146914E0,5.865817E-1,-4.153803E0,-1.6694928E0,-2.6618665E-1,-1.3634381E0,8.3508724E-1,-1.9593349E0,-4.1208787E0,-1.1120033E0,5.055911E0,1.0066798E0,7.986967E0,-2.4899209E0,-2.2488626E1,1.4218153E1,-2.9470127E0,1.1186233E0,-8.4651256E-1,-3.1711903E0,5.1915374E0,-1.4904144E0,-9.5271695E-1,7.5568235E-1,2.02331E0,-2.1925218E0,-6.2622184E-1,-6.9961658E0,-8.889817E-1,-3.2248774E0,9.0292406E-1,-1.7946138E0,-4.8629775E0,-1.6281857E0,-2.7820306E0,-1.0879425E0,3.6298907E-1,-1.1894557E-1,-3.2115063E-1,-2.719722E0,-2.6255473E-1,3.9236143E-1,-2.4684452E-1,-1.792576E0,-7.640919E-1,-2.0950847E0,-4.0751886E-2,-1.4265208E0,1.4512879E-2,1.9086374E0,-1.6159248E0,7.653231E-1,3.358647E0,1.4061041E0,-1.2151312E0,3.0868568E0,-7.4195786E0,7.9423904E-1,5.619692E0,-4.983968E0,-1.1700168E0,-7.08867E-1,6.3205934E-1,-1.7473346E0,-4.20182E-2,-3.8526586E-1,-4.282841E-3,-1.181559E0,-4.3965485E-2,3.9182298E0,-4.6698356E-1,1.104123E0,1.0477485E-2,-5.9026396E-1,-9.726045E-2,2.7707845E-1,7.2540087E-1,2.82477E-1,-8.3416533E-1,2.4760191E0,-1.9912231E0,-9.1867425E-2,-2.5111575E0,5.0500774E-1,-2.2371651E-1,-1.4032054E0,-6.117123E-1,-1.3079134E0,7.2705406E-3,4.401445E-1,-5.8208346E-1,9.795934E-1,-1.5623686E0,3.5051036E-1,-1.9997774E-2,-1.5967871E0,-2.091936E0,-7.5364876E-1,-2.0794724E-1,-9.272713E-1],"categories":[],"categories_nodes":[],"categories_segments":[],"categories_sizes":[],"default_left":[0,0,0,0,0,0,0,0,0,0,0,0,0,0,0,0,0,0,0,0,0,0,0,0,0,0,0,0,0,0,0,0,0,0,0,0,0,0,0,0,0,0,0,0,0,0,0,0,0,0,0,0,0,0,0,0,0,0,0,0,0,0,0,0,0,0,0,0,0,0,0,0,0,0,0,0,0,0,0,0,0,0,0,0,0,0,0,0,0,0,0,0,0,0,0,0,0,0,0,0,0,0,0,0,0,0,0,0,0,0,0,0,0,0,0,0,0,0,0,0,0,0,0,0,0,0,0],"id":10,"left_children":[1,3,5,7,9,11,13,15,17,19,21,23,25,27,29,31,33,35,37,39,41,43,45,47,49,51,53,55,57,59,61,63,65,67,69,71,73,75,77,79,81,83,85,87,89,91,93,95,97,99,101,103,105,107,109,111,113,115,117,119,121,123,125,-1,-1,-1,-1,-1,-1,-1,-1,-1,-1,-1,-1,-1,-1,-1,-1,-1,-1,-1,-1,-1,-1,-1,-1,-1,-1,-1,-1,-1,-1,-1,-1,-1,-1,-1,-1,-1,-1,-1,-1,-1,-1,-1,-1,-1,-1,-1,-1,-1,-1,-1,-1,-1,-1,-1,-1,-1,-1,-1,-1,-1,-1,-1,-1],"loss_changes":[7.196001E4,7.51204E4,1.2189495E5,4.7577082E4,3.6483938E4,4.9951234E4,3.1575309E4,4.591973E4,3.6254773E4,1.3532697E4,2.709225E4,1.3743195E4,2.9585016E4,3.675704E4,8.325523E3,1.5144004E4,5.806643E4,2.0893117E4,4.6736426E3,1.499782E4,2.7685309E4,1.0480289E4,1.3059721E4,6.129867E3,8.097188E3,2.7838438E4,8.66956E3,1.1871635E4,2.0573508E4,2.757545E3,6.932131E3,1.5973373E4,3.343742E4,6.304839E4,3.7512562E4,2.366404E4,1.4640349E4,3.9831055E3,5.3256733E3,7.0626484E3,3.4717915E3,2.8848672E3,5.182418E3,7.942047E3,4.5682603E3,7.3592324E3,6.5162637E3,5.9248496E3,1.8120205E3,3.3246582E3,3.075587E3,2.532936E4,9.90624E3,6.5457754E3,2.7338516E3,1.069356E4,3.2827598E3,1.1952172E4,2.3671084E3,2.5128691E3,1.9610923E3,4.143584E3,5.565452E3,0E0,0E0,0E0,0E0,0E0,0E0,0E0,0E0,0E0,0E0,0E0,0E0,0E0,0E0,0E0,0E0,0E0,0E0,0E0,0E0,0E0,0E0,0E0,0E0,0E0,0E0,0E0,0E0,0E0,0E0,0E0,0E0,0E0,0E0,0E0,0E0,0E0,0E0,0E0,0E0,0E0,0E0,0E0,0E0,0E0,0E0,0E0,0E0,0E0,0E0,0E0,0E0,0E0,0E0,0E0,0E0,0E0,0E0,0E0,0E0,0E0,0E0,0E0,0E0],"parents":[2147483647,0,0,1,1,2,2,3,3,4,4,5,5,6,6,7,7,8,8,9,9,10,10,11,11,12,12,13,13,14,14,15,15,16,16,17,17,18,18,19,19,20,20,21,21,22,22,23,23,24,24,25,25,26,26,27,27,28,28,29,29,30,30,31,31,32,32,33,33,34,34,35,35,36,36,37,37,38,38,39,39,40,40,41,41,42,42,43,43,44,44,45,45,46,46,47,47,48,48,49,49,50,50,51,51,52,52,53,53,54,54,55,55,56,56,57,57,58,58,59,59,60,60,61,61,62,62],"right_children":[2,4,6,8,10,12,14,16,18,20,22,24,26,28,30,32,34,36,38,40,42,44,46,48,50,52,54,56,58,60,62,64,66,68,70,72,74,76,78,80,82,84,86,88,90,92,94,96,98,100,102,104,106,108,110,112,114,116,118,120,122,124,126,-1,-1,-1,-1,-1,-1,-1,-1,-1,-1,-1,-1,-1,-1,-1,-1,-1,-1,-1,-1,-1,-1,-1,-1,-1,-1,-1,-1,-1,-1,-1,-1,-1,-1,-1,-1,-1,-1,-1,-1,-1,-1,-1,-1,-1,-1,-1,-1,-1,-1,-1,-1,-1,-1,-1,-1,-1,-1,-1,-1,-1,-1,-1,-1],"split_conditions":[-7.132E0,6.89E-1,8.37E-1,1E0,2.87E-2,7.945201E0,9.62E-1,8.94468E0,1E0,1.1651243E1,5.9E-1,2.8903718E0,3.78E-1,-4.845E0,1.54787E5,9.16E-1,1E0,1.3168549E1,1.7E2,-1.3473E1,1.1687634E1,1E0,1E0,6.6034E4,2.36E-2,1E0,1E0,1E0,2.63E-1,6.39E-1,-4.436E0,-2.0817E1,8.871506E0,1.07E-1,6.16E-2,1E0,1.4539837E1,1.8E1,1E0,2.31E-1,1.0311017E1,8E0,-1.1756E1,4.61E-1,1.2E1,1.95573E5,7.08E-1,5.3427E4,1.89715E2,6.0450053E0,1.50857E5,2.37467E5,1E0,1.06202E5,1E0,8.23E-1,8.75E-1,9.709661E0,1.5021742E1,4.87E-1,1.78E-1,1.52E2,1E0,3.6298907E-1,-1.1894557E-1,-3.2115063E-1,-2.719722E0,-2.6255473E-1,3.9236143E-1,-2.4684452E-1,-1.792576E0,-7.640919E-1,-2.0950847E0,-4.0751886E-2,-1.4265208E0,1.4512879E-2,1.9086374E0,-1.6159248E0,7.653231E-1,3.358647E0,1.4061041E0,-1.2151312E0,3.0868568E0,-7.4195786E0,7.9423904E-1,5.619692E0,-4.983968E0,-1.1700168E0,-7.08867E-1,6.3205934E-1,-1.7473346E0,-4.20182E-2,-3.8526586E-1,-4.282841E-3,-1.181559E0,-4.3965485E-2,3.9182298E0,-4.6698356E-1,1.104123E0,1.0477485E-2,-5.9026396E-1,-9.726045E-2,2.7707845E-1,7.2540087E-1,2.82477E-1,-8.3416533E-1,2.4760191E0,-1.9912231E0,-9.1867425E-2,-2.5111575E0,5.0500774E-1,-2.2371651E-1,-1.4032054E0,-6.117123E-1,-1.3079134E0,7.2705406E-3,4.401445E-1,-5.8208346E-1,9.795934E-1,-1.5623686E0,3.5051036E-1,-1.9997774E-2,-1.5967871E0,-2.091936E0,-7.5364876E-1,-2.0794724E-1,-9.272713E-1],"split_indices":[8,4,4,58,15,17,4,17,52,17,2,17,5,8,3,11,22,17,14,8,17,52,21,3,1,49,23,21,11,2,8,8,17,1,11,28,17,14,36,1,17,0,8,2,0,3,4,3,12,17,3,3,43,3,10,7,4,17,17,11,1,14,41,0,0,0,0,0,0,0,0,0,0,0,0,0,0,0,0,0,0,0,0,0,0,0,0,0,0,0,0,0,0,0,0,0,0,0,0,0,0,0,0,0,0,0,0,0,0,0,0,0,0,0,0,0,0,0,0,0,0,0,0,0,0,0,0],"split_type":[0,0,0,0,0,0,0,0,0,0,0,0,0,0,0,0,0,0,0,0,0,0,0,0,0,0,0,0,0,0,0,0,0,0,0,0,0,0,0,0,0,0,0,0,0,0,0,0,0,0,0,0,0,0,0,0,0,0,0,0,0,0,0,0,0,0,0,0,0,0,0,0,0,0,0,0,0,0,0,0,0,0,0,0,0,0,0,0,0,0,0,0,0,0,0,0,0,0,0,0,0,0,0,0,0,0,0,0,0,0,0,0,0,0,0,0,0,0,0,0,0,0,0,0,0,0,0],"sum_hessian":[3.88915E5,2.36931E5,1.51984E5,1.94573E5,4.2358E4,9.026E4,6.1724E4,1.84057E5,1.0516E4,9.25E2,4.1433E4,2.5691E4,6.4569E4,4.9463E4,1.2261E4,9.7867E4,8.619E4,9.371E3,1.145E3,8.42E2,8.3E1,1.4945E4,2.6488E4,5.416E3,2.0275E4,6.0939E4,3.63E3,2.2154E4,2.7309E4,1.543E3,1.0718E4,8.3044E4,1.4823E4,7.7971E4,8.219E3,5.255E3,4.116E3,6.08E2,5.37E2,6.71E2,1.71E2,4.9E1,3.4E1,1.4282E4,6.63E2,2.3799E4,2.689E3,1.4E2,5.276E3,3.316E3,1.6959E4,5.9331E4,1.608E3,3.403E3,2.27E2,1.9709E4,2.445E3,2.4107E4,3.202E3,1.204E3,3.39E2,3.678E3,7.04E3,6.735E3,7.6309E4,1.4281E4,5.42E2,1.6886E4,6.1085E4,6.407E3,1.812E3,3.392E3,1.863E3,3.247E3,8.69E2,1.26E2,4.82E2,1.04E2,4.33E2,3.39E2,3.32E2,1.53E2,1.8E1,4.5E1,4E0,3E1,4E0,5.425E3,8.857E3,5.81E2,8.2E1,9.105E3,1.4694E4,5.26E2,2.163E3,8.4E1,5.6E1,5.21E3,6.6E1,1.681E3,1.635E3,2.282E3,1.4677E4,4.3469E4,1.5862E4,1.523E3,8.5E1,1.71E2,3.232E3,1.96E2,3.1E1,1.8992E4,7.17E2,1.197E3,1.248E3,9.427E3,1.468E4,3.113E3,8.9E1,1.139E3,6.5E1,2.39E2,1E2,2.21E2,3.457E3,5.882E3,1.158E3],"tree_param":{"num_deleted":"0","num_feature":"68","num_nodes":"127","size_leaf_vector":"1"}},{"base_weights":[-9.169392E-5,2.3919451E-1,-5.7953453E-1,-3.974835E-1,6.314326E-1,-5.099497E-1,-3.8344517E0,-4.3493748E-2,-1.5597652E0,3.468025E-1,1.6703653E0,-7.688309E-1,3.3210155E-1,-2.1945064E0,-6.9208527E0,-3.596764E-1,9.9888104E-1,-8.375172E0,-1.450308E0,-1.6061255E0,5.348494E-1,1.8186657E0,-4.341896E0,3.3413735E-1,-1.0749125E0,1.3222589E-1,2.873638E0,-4.1147757E0,-9.705764E-1,-1.1203068E0,-1.0268166E1,-9.181109E-1,2.7849713E-1,-3.1349204E0,1.2286487E0,-8.627444E0,9.082085E0,-1.3207368E0,-6.8575673E0,-1.5428351E0,-8.81417E0,2.643205E0,4.201313E-1,2.165192E0,-9.6020937E-1,-1.4329887E1,-2.1086433E0,1.0666125E0,-4.7367224E-1,-1.01297E0,-4.3459444E0,2.6825547E-1,-2.5772223E0,2.6828818E0,1.1946464E1,-4.8066087E0,4.396989E0,-6.143745E-1,-1.0006975E1,8.912861E-1,-1.0412491E1,-1.1536669E1,-2.8726462E-1,-3.1077442E-1,1.1620467E0,2.8775865E-1,-9.035463E-2,4.0093775E0,-1.041879E0,3.1693143E-1,2.1823688E0,-3.255198E0,-2.2189102E0,3.3236015E0,-1.3512754E-1,-2.3162809E-1,-6.393717E-1,-2.5562437E0,-5.132417E-1,-4.1406563E-1,-1.3444589E0,-1.1905365E0,-3.7265422E0,1.0273358E0,-1.0573322E0,1.3611342E-1,-1.6321845E0,8.444677E-1,2.5535747E-1,-5.79297E-1,7.716171E-1,-1.6964027E0,-7.1160955E0,-1.1748797E0,2.3003933E0,-1.7401475E0,3.9982176E-1,-1.7359102E-1,1.4007889E0,-2.9013315E-1,-1.6284916E0,-1.3887309E0,9.2666445E0,-1.666024E-1,1.8718296E-1,-9.820502E-1,5.1050717E-1,4.7012264E-1,1.1713529E0,2.0899622E0,8.331644E0,-1.9130977E0,-1.9866195E-1,2.6684065E0,-4.5245557E0,-2.252498E-1,3.9662979E0,-1.41493E0,-5.3951387E0,6.5449065E-1,-1.6113397E0,-6.2611275E0,-1.3811369E0,-3.9361823E0,-1.2645112E0,-2.1281927E0,1.0679353E0],"categories":[],"categories_nodes":[],"categories_segments":[],"categories_sizes":[],"default_left":[0,0,0,0,0,0,0,0,0,0,0,0,0,0,0,0,0,0,0,0,0,0,0,0,0,0,0,0,0,0,0,0,0,0,0,0,0,0,0,0,0,0,0,0,0,0,0,0,0,0,0,0,0,0,0,0,0,0,0,0,0,0,0,0,0,0,0,0,0,0,0,0,0,0,0,0,0,0,0,0,0,0,0,0,0,0,0,0,0,0,0,0,0,0,0,0,0,0,0,0,0,0,0,0,0,0,0,0,0,0,0,0,0,0,0,0,0,0,0,0,0,0,0,0,0,0,0],"id":11,"left_children":[1,3,5,7,9,11,13,15,17,19,21,23,25,27,29,31,33,35,37,39,41,43,45,47,49,51,53,55,57,59,61,63,65,67,69,71,73,75,77,79,81,83,85,87,89,91,93,95,97,99,101,103,105,107,109,111,113,115,117,119,121,123,125,-1,-1,-1,-1,-1,-1,-1,-1,-1,-1,-1,-1,-1,-1,-1,-1,-1,-1,-1,-1,-1,-1,-1,-1,-1,-1,-1,-1,-1,-1,-1,-1,-1,-1,-1,-1,-1,-1,-1,-1,-1,-1,-1,-1,-1,-1,-1,-1,-1,-1,-1,-1,-1,-1,-1,-1,-1,-1,-1,-1,-1,-1,-1,-1],"loss_changes":[5.392438E4,6.8738266E4,2.5742812E4,4.317189E4,5.0365297E4,2.4260287E4,1.2026191E4,2.6509861E4,1.8262492E4,4.9099293E4,3.2665281E4,2.8736727E4,1.3293753E4,3.650684E3,1.6006898E4,2.1994135E4,1.7784363E4,1.7827031E3,1.6883727E4,5.3435566E3,2.949525E4,3.442378E4,1.964342E4,1.0941639E4,1.3495922E4,8.943186E3,3.2701172E3,3.5838096E3,3.0549138E3,5.672984E3,6.618289E3,1.8582928E4,1.1365176E4,5.545332E3,1.845747E4,9.6525977E2,1.1918503E2,1.0469598E4,4.8134453E3,5.557291E3,1.7338267E3,3.0334629E4,2.2765062E4,2.7130969E4,1.3597742E4,1.298157E4,1.278953E4,1.7731016E4,4.749958E3,1.3235852E4,1.2494533E4,6.768509E3,3.4615737E3,2.542878E3,2.8801406E3,3.6404268E3,4.164206E3,1.7392866E3,1.4344417E3,2.0318948E3,3.1842559E3,5.325707E3,1.5963978E3,0E0,0E0,0E0,0E0,0E0,0E0,0E0,0E0,0E0,0E0,0E0,0E0,0E0,0E0,0E0,0E0,0E0,0E0,0E0,0E0,0E0,0E0,0E0,0E0,0E0,0E0,0E0,0E0,0E0,0E0,0E0,0E0,0E0,0E0,0E0,0E0,0E0,0E0,0E0,0E0,0E0,0E0,0E0,0E0,0E0,0E0,0E0,0E0,0E0,0E0,0E0,0E0,0E0,0E0,0E0,0E0,0E0,0E0,0E0,0E0,0E0,0E0,0E0,0E0],"parents":[2147483647,0,0,1,1,2,2,3,3,4,4,5,5,6,6,7,7,8,8,9,9,10,10,11,11,12,12,13,13,14,14,15,15,16,16,17,17,18,18,19,19,20,20,21,21,22,22,23,23,24,24,25,25,26,26,27,27,28,28,29,29,30,30,31,31,32,32,33,33,34,34,35,35,36,36,37,37,38,38,39,39,40,40,41,41,42,42,43,43,44,44,45,45,46,46,47,47,48,48,49,49,50,50,51,51,52,52,53,53,54,54,55,55,56,56,57,57,58,58,59,59,60,60,61,61,62,62],"right_children":[2,4,6,8,10,12,14,16,18,20,22,24,26,28,30,32,34,36,38,40,42,44,46,48,50,52,54,56,58,60,62,64,66,68,70,72,74,76,78,80,82,84,86,88,90,92,94,96,98,100,102,104,106,108,110,112,114,116,118,120,122,124,126,-1,-1,-1,-1,-1,-1,-1,-1,-1,-1,-1,-1,-1,-1,-1,-1,-1,-1,-1,-1,-1,-1,-1,-1,-1,-1,-1,-1,-1,-1,-1,-1,-1,-1,-1,-1,-1,-1,-1,-1,-1,-1,-1,-1,-1,-1,-1,-1,-1,-1,-1,-1,-1,-1,-1,-1,-1,-1,-1,-1,-1,-1,-1,-1],"split_conditions":[1.78E-1,1.7E2,1E0,5.54E-1,1.1900227E1,7.78E-1,1.3094842E1,1.2933078E1,3.3556E4,2E0,1E0,1.69E2,1E0,-8.995E0,3.54E-2,6.37E-1,1.1E1,1.3094842E1,1E0,1E0,-2.1723E1,1E0,6.56E-1,1.3662E5,1E0,1E0,2.96E5,1E0,8.9E-1,5.68E-1,1.5316863E1,1E0,6.19E-1,1E0,1E0,6E0,1.1E1,1.26887E2,1.3390728E1,1E0,1.0688188E1,1E0,1.1874801E1,2.4288E5,9.09E-1,1.3323069E1,1.4232336E1,4.3820267E0,1.5316863E1,1E0,1E0,9.9896E1,1E0,8.53E-1,-4.801E0,1E0,8.57E-1,1E0,3.17E-1,1E0,7.8E-1,6.72E-1,4.04E-1,-3.1077442E-1,1.1620467E0,2.8775865E-1,-9.035463E-2,4.0093775E0,-1.041879E0,3.1693143E-1,2.1823688E0,-3.255198E0,-2.2189102E0,3.3236015E0,-1.3512754E-1,-2.3162809E-1,-6.393717E-1,-2.5562437E0,-5.132417E-1,-4.1406563E-1,-1.3444589E0,-1.1905365E0,-3.7265422E0,1.0273358E0,-1.0573322E0,1.3611342E-1,-1.6321845E0,8.444677E-1,2.5535747E-1,-5.79297E-1,7.716171E-1,-1.6964027E0,-7.1160955E0,-1.1748797E0,2.3003933E0,-1.7401475E0,3.9982176E-1,-1.7359102E-1,1.4007889E0,-2.9013315E-1,-1.6284916E0,-1.3887309E0,9.2666445E0,-1.666024E-1,1.8718296E-1,-9.820502E-1,5.1050717E-1,4.7012264E-1,1.1713529E0,2.0899622E0,8.331644E0,-1.9130977E0,-1.9866195E-1,2.6684065E0,-4.5245557E0,-2.252498E-1,3.9662979E0,-1.41493E0,-5.3951387E0,6.5449065E-1,-1.6113397E0,-6.2611275E0,-1.3811369E0,-3.9361823E0,-1.2645112E0,-2.1281927E0,1.0679353E0],"split_indices":[11,14,22,5,17,2,17,17,3,0,61,14,43,8,1,2,14,17,20,59,8,58,4,3,41,18,3,20,15,2,17,52,15,14,65,0,0,12,17,26,17,58,17,3,5,17,17,17,17,63,19,12,20,2,8,25,2,65,11,61,4,7,15,0,0,0,0,0,0,0,0,0,0,0,0,0,0,0,0,0,0,0,0,0,0,0,0,0,0,0,0,0,0,0,0,0,0,0,0,0,0,0,0,0,0,0,0,0,0,0,0,0,0,0,0,0,0,0,0,0,0,0,0,0,0,0,0],"split_type":[0,0,0,0,0,0,0,0,0,0,0,0,0,0,0,0,0,0,0,0,0,0,0,0,0,0,0,0,0,0,0,0,0,0,0,0,0,0,0,0,0,0,0,0,0,0,0,0,0,0,0,0,0,0,0,0,0,0,0,0,0,0,0,0,0,0,0,0,0,0,0,0,0,0,0,0,0,0,0,0,0,0,0,0,0,0,0,0,0,0,0,0,0,0,0,0,0,0,0,0,0,0,0,0,0,0,0,0,0,0,0,0,0,0,0,0,0,0,0,0,0,0,0,0,0,0,0],"sum_hessian":[3.88915E5,2.75249E5,1.13666E5,1.04929E5,1.7032E5,1.11288E5,2.378E3,8.0433E4,2.4496E4,1.33694E5,3.6626E4,8.5119E4,2.6169E4,1.554E3,8.24E2,6.1714E4,1.8719E4,3.86E2,2.411E4,1.1742E4,1.21952E5,3.5745E4,8.81E2,1.849E4,6.6629E4,2.4262E4,1.907E3,6.04E2,9.5E2,3.02E2,5.22E2,3.2913E4,2.8801E4,9.85E2,1.7734E4,3.81E2,5E0,2.3547E4,5.63E2,1.1641E4,1.01E2,6.292E3,1.1566E5,3.1782E4,3.963E3,1.6E2,7.21E2,9.697E3,8.793E3,6.5392E4,1.237E3,2.3103E4,1.159E3,1.869E3,3.8E1,5.59E2,4.5E1,9.15E2,3.5E1,2.49E2,5.3E1,4.63E2,5.9E1,3.2124E4,7.89E2,1.3246E4,1.5555E4,1.9E1,9.66E2,1.7244E4,4.9E2,1.33E2,2.48E2,4E0,1E0,1.4043E4,9.504E3,4.25E2,1.38E2,1.1032E4,6.09E2,4.4E1,5.7E1,5.585E3,7.07E2,1.15002E5,6.58E2,2.1266E4,1.0516E4,3.109E3,8.54E2,8.4E1,7.6E1,6.09E2,1.12E2,3.61E2,9.336E3,8.618E3,1.75E2,6.4721E4,6.71E2,1.228E3,9E0,6.968E3,1.6135E4,9.97E2,1.62E2,9.78E2,8.91E2,3E1,8E0,4.05E2,1.54E2,3.7E1,8E0,9.07E2,8E0,2.2E1,1.3E1,2.07E2,4.2E1,1.8E1,3.5E1,3.8E2,8.3E1,2.1E1,3.8E1],"tree_param":{"num_deleted":"0","num_feature":"68","num_nodes":"127","size_leaf_vector":"1"}},{"base_weights":[-1.1238216E-4,4.455293E-2,-2.6807528E0,2.8960332E-1,-4.477552E-1,-2.2332666E0,-9.376232E0,-2.0478006E-1,5.800832E-1,4.3244286E0,-5.002741E-1,-4.8049154E0,-1.546548E0,-2.0444229E0,-1.3784775E1,-1.1476898E0,-9.590547E-2,-1.8203707E0,6.962564E-1,1.4427214E0,8.21155E0,-1.7814484E0,-2.8567785E-1,-9.146029E0,-4.3563457E0,-2.4914E0,5.6151104E-1,-4.2582586E-1,-7.601777E0,-3.3805425E0,-1.57008915E1,-4.2943316E0,-1.002948E0,1.6473966E0,-1.661825E-1,-3.778883E0,-1.1072617E0,-1.14857174E-1,1.071249E0,2.689735E0,-1.23907585E1,5.0025063E0,1.2760219E1,-5.1391345E-1,-2.1707084E0,-2.1833159E-1,-2.8598633E0,-6.97149E0,-7.040439E0,-7.131649E0,-3.514694E0,-2.7803314E0,3.556038E0,1.2276275E0,-7.6307707E0,-1.7347645E0,8.027081E0,-1.6487778E1,-5.1087847E0,-1.1937012E1,1.6859027E0,-2.1552473E1,-1.193413E1,-1.6207174E0,4.743605E-1,-1.084666E-1,-5.338335E-1,-1.3129656E-1,1.0771296E0,-4.4210084E-2,-1.4126084E0,-5.75082E0,-1.0356026E0,-1.5111814E0,-1.962017E-1,-5.768451E-1,3.6029577E-2,4.426299E-1,2.0024119E-2,-8.308059E-2,1.4735554E0,2.2495773E0,-4.463282E0,2.8963766E0,-2.2656046E-1,4.5277424E0,5.607165E-1,-8.1176686E-1,3.0832935E-2,-5.428279E-1,-9.87882E-1,-8.487568E-2,6.4569485E-1,-7.04696E-1,-2.614494E0,1.7983345E0,-2.576077E0,-1.1210048E0,-2.5978115E0,-3.392253E0,-9.9043524E-1,-8.6559886E-1,1.7351562E0,-5.703163E-1,1.850499E0,2.1817197E-1,2.575603E0,-1.4510843E0,-5.232129E0,1.6285523E0,-1.0258961E0,5.434064E0,-2.258665E0,-1.0880682E0,-5.408033E0,-1.2968019E-1,-4.480021E0,-4.3674803E0,1.0202296E0,2.7716143E0,-1.9732738E0,-2.4946427E0,-7.0541344E0,-3.7543252E0,1.5227779E0],"categories":[],"categories_nodes":[],"categories_segments":[],"categories_sizes":[],"default_left":[0,0,0,0,0,0,0,0,0,0,0,0,0,0,0,0,0,0,0,0,0,0,0,0,0,0,0,0,0,0,0,0,0,0,0,0,0,0,0,0,0,0,0,0,0,0,0,0,0,0,0,0,0,0,0,0,0,0,0,0,0,0,0,0,0,0,0,0,0,0,0,0,0,0,0,0,0,0,0,0,0,0,0,0,0,0,0,0,0,0,0,0,0,0,0,0,0,0,0,0,0,0,0,0,0,0,0,0,0,0,0,0,0,0,0,0,0,0,0,0,0,0,0,0,0],"id":12,"left_children":[1,3,5,7,9,11,13,15,17,19,21,23,25,27,29,31,33,35,37,39,41,43,45,47,49,51,53,55,57,59,61,63,65,67,69,71,73,75,77,79,81,83,85,87,89,91,93,95,-1,97,99,101,103,105,107,109,111,113,115,117,119,121,123,-1,-1,-1,-1,-1,-1,-1,-1,-1,-1,-1,-1,-1,-1,-1,-1,-1,-1,-1,-1,-1,-1,-1,-1,-1,-1,-1,-1,-1,-1,-1,-1,-1,-1,-1,-1,-1,-1,-1,-1,-1,-1,-1,-1,-1,-1,-1,-1,-1,-1,-1,-1,-1,-1,-1,-1,-1,-1,-1,-1,-1,-1],"loss_changes":[4.656567E4,4.615023E4,1.9076422E4,3.667929E4,3.1865496E4,1.0546178E4,1.2868531E4,9.704134E3,4.4866457E4,1.5491094E4,3.45726E4,2.4117988E3,9.39873E3,1.3550254E3,4.910914E3,4.4522754E3,1.038273E4,1.0368605E4,4.667586E4,1.3764756E4,8.533727E3,8.900328E3,1.8672168E4,3.4802354E3,2.6447988E3,5.702574E3,7.9820645E3,1.3195167E3,6.6896045E2,1.7541599E3,4.3715117E3,2.8080308E3,4.6590137E3,1.3306133E4,6.961856E3,9.904803E3,9.697668E3,2.0609795E4,4.260632E4,4.8203223E3,3.376039E3,9.301801E3,6.1442266E3,5.7317803E3,5.589949E3,1.6072203E4,8.19348E3,2.2088696E3,0E0,1.342083E3,1.4233594E3,2.8132695E3,2.1357983E3,4.9714297E3,2.9303516E3,1.2617034E3,2.64685E3,7.316882E1,1.2800049E3,6.525725E2,1.6834939E3,1.9073789E3,1.3467148E3,0E0,0E0,0E0,0E0,0E0,0E0,0E0,0E0,0E0,0E0,0E0,0E0,0E0,0E0,0E0,0E0,0E0,0E0,0E0,0E0,0E0,0E0,0E0,0E0,0E0,0E0,0E0,0E0,0E0,0E0,0E0,0E0,0E0,0E0,0E0,0E0,0E0,0E0,0E0,0E0,0E0,0E0,0E0,0E0,0E0,0E0,0E0,0E0,0E0,0E0,0E0,0E0,0E0,0E0,0E0,0E0,0E0,0E0,0E0,0E0,0E0,0E0],"parents":[2147483647,0,0,1,1,2,2,3,3,4,4,5,5,6,6,7,7,8,8,9,9,10,10,11,11,12,12,13,13,14,14,15,15,16,16,17,17,18,18,19,19,20,20,21,21,22,22,23,23,24,24,25,25,26,26,27,27,28,28,29,29,30,30,31,31,32,32,33,33,34,34,35,35,36,36,37,37,38,38,39,39,40,40,41,41,42,42,43,43,44,44,45,45,46,46,47,47,49,49,50,50,51,51,52,52,53,53,54,54,55,55,56,56,57,57,58,58,59,59,60,60,61,61,62,62],"right_children":[2,4,6,8,10,12,14,16,18,20,22,24,26,28,30,32,34,36,38,40,42,44,46,48,50,52,54,56,58,60,62,64,66,68,70,72,74,76,78,80,82,84,86,88,90,92,94,96,-1,98,100,102,104,106,108,110,112,114,116,118,120,122,124,-1,-1,-1,-1,-1,-1,-1,-1,-1,-1,-1,-1,-1,-1,-1,-1,-1,-1,-1,-1,-1,-1,-1,-1,-1,-1,-1,-1,-1,-1,-1,-1,-1,-1,-1,-1,-1,-1,-1,-1,-1,-1,-1,-1,-1,-1,-1,-1,-1,-1,-1,-1,-1,-1,-1,-1,-1,-1,-1,-1,-1,-1],"split_conditions":[1E0,2.05E-1,1E0,8.059277E0,2.87E-2,3.84E-1,1.1996524E1,1.34E-1,1.04227E5,1.49827E5,4.31E-1,3.37E-2,1.1947476E1,1.35075E2,1.69E2,3.3556E4,7.3583E4,2.31E-1,5.97E-2,1.1609326E1,9E0,1.07E-6,8.98E-1,1E0,1.5874E5,1E0,1E0,3.17E-1,-1.8334E1,1.07E-1,2.01E-2,2.87E-2,5.29E-2,6.0389E4,1E0,-2.8712E1,5.3427E4,-1.0191E1,6.19E-1,6.6034E4,5.58E-2,6E0,3.3372E5,1.70463E5,5.97E-1,1E0,1E0,6.83E-3,-7.040439E0,8.503297E0,7.4E1,1E0,8.420902E0,1E0,6.77E-2,1.25E-3,6.35E-1,3.91E-2,1E0,1E0,8E0,-1.6255E1,1.1E1,-1.6207174E0,4.743605E-1,-1.084666E-1,-5.338335E-1,-1.3129656E-1,1.0771296E0,-4.4210084E-2,-1.4126084E0,-5.75082E0,-1.0356026E0,-1.5111814E0,-1.962017E-1,-5.768451E-1,3.6029577E-2,4.426299E-1,2.0024119E-2,-8.308059E-2,1.4735554E0,2.2495773E0,-4.463282E0,2.8963766E0,-2.2656046E-1,4.5277424E0,5.607165E-1,-8.1176686E-1,3.0832935E-2,-5.428279E-1,-9.87882E-1,-8.487568E-2,6.4569485E-1,-7.04696E-1,-2.614494E0,1.7983345E0,-2.576077E0,-1.1210048E0,-2.5978115E0,-3.392253E0,-9.9043524E-1,-8.6559886E-1,1.7351562E0,-5.703163E-1,1.850499E0,2.1817197E-1,2.575603E0,-1.4510843E0,-5.232129E0,1.6285523E0,-1.0258961E0,5.434064E0,-2.258665E0,-1.0880682E0,-5.408033E0,-1.2968019E-1,-4.480021E0,-4.3674803E0,1.0202296E0,2.7716143E0,-1.9732738E0,-2.4946427E0,-7.0541344E0,-3.7543252E0,1.5227779E0],"split_indices":[35,7,33,17,15,2,17,15,3,3,2,15,17,12,14,3,3,1,1,17,0,5,7,67,3,28,31,7,8,7,5,15,11,3,33,8,3,8,15,3,1,0,3,3,7,27,37,4,0,17,14,46,17,47,11,5,7,5,22,21,0,8,0,0,0,0,0,0,0,0,0,0,0,0,0,0,0,0,0,0,0,0,0,0,0,0,0,0,0,0,0,0,0,0,0,0,0,0,0,0,0,0,0,0,0,0,0,0,0,0,0,0,0,0,0,0,0,0,0,0,0,0,0,0,0],"split_type":[0,0,0,0,0,0,0,0,0,0,0,0,0,0,0,0,0,0,0,0,0,0,0,0,0,0,0,0,0,0,0,0,0,0,0,0,0,0,0,0,0,0,0,0,0,0,0,0,0,0,0,0,0,0,0,0,0,0,0,0,0,0,0,0,0,0,0,0,0,0,0,0,0,0,0,0,0,0,0,0,0,0,0,0,0,0,0,0,0,0,0,0,0,0,0,0,0,0,0,0,0,0,0,0,0,0,0,0,0,0,0,0,0,0,0,0,0,0,0,0,0,0,0,0,0],"sum_hessian":[3.88915E5,3.82542E5,6.373E3,2.5541E5,1.27132E5,5.975E3,3.98E2,9.4528E4,1.60882E5,1.383E3,1.25749E5,1.258E3,4.717E3,1.5E2,2.48E2,9.784E3,8.4744E4,7.426E3,1.53456E5,7.95E2,5.88E2,1.804E4,1.07709E5,1.16E2,1.142E3,3.257E3,1.46E3,1.17E2,3.3E1,3.9E1,2.09E2,4.29E2,9.355E3,3.283E3,8.1461E4,1.981E3,5.445E3,4.8516E4,1.0494E5,7.3E2,6.5E1,3.46E2,2.42E2,4.239E3,1.3801E4,1.04964E5,2.745E3,1.02E2,1.4E1,2.64E2,8.78E2,3.109E3,1.48E2,1.351E3,1.09E2,1.02E2,1.5E1,6E0,2.7E1,1.4E1,2.5E1,8E1,1.29E2,3.61E2,6.8E1,5.124E3,4.231E3,1.584E3,1.699E3,8.1126E4,3.35E2,4E1,1.941E3,5.62E2,4.883E3,5.579E3,4.2937E4,7.483E4,3.011E4,3.13E2,4.17E2,7E0,5.8E1,1.91E2,1.55E2,1.99E2,4.3E1,9.3E2,3.309E3,1.0442E4,3.359E3,1.02181E5,2.783E3,2.526E3,2.19E2,1.1E1,9.1E1,8.3E1,1.81E2,2.2E1,8.56E2,3.072E3,3.7E1,4.8E1,1E2,1.266E3,8.5E1,8.6E1,2.3E1,1.9E1,8.3E1,9E0,6E0,1E0,5E0,1.9E1,8E0,1.2E1,2E0,1.3E1,1.2E1,1.1E1,6.9E1,1.25E2,4E0],"tree_param":{"num_deleted":"0","num_feature":"68","num_nodes":"125","size_leaf_vector":"1"}},{"base_weights":[-2.0298002E-4,-2.8180182E-1,3.63583E-1,-3.143268E-1,3.4464877E0,5.47867E-1,-4.219168E-1,-4.9151868E-1,3.8087198E-1,-2.9455152E0,5.0984015E0,-1.3017385E-1,8.8620853E-1,-2.0859463E0,5.522536E-2,-2.912034E-1,-1.311692E0,-2.4059694E0,5.28928E-1,-3.96794E0,4.981254E0,6.0860806E0,-4.984425E0,-2.5456402E-1,3.54507E0,1.696348E-1,1.3608121E0,1.3353951E-1,-2.6441264E0,2.7710804E-1,-2.0994308E0,-5.503848E-1,3.2204053E-1,-8.436559E-1,-1.9530654E0,-8.425815E0,-2.1689951E0,9.1429454E-1,-5.0745684E-1,-6.5231175E0,-1.7858065E0,7.51104E0,-9.824876E0,4.1928477E0,8.173241E0,-1.1080618E1,4.65649E0,-1.3441644E0,1.19757146E-1,4.291323E0,7.2605304E-2,1.9216368E0,-2.6008626E-2,1.5919023E0,-6.18697E-1,1.3863055E1,-2.9886184E-2,-1.7973776E0,-5.5245514E0,-6.896842E-1,8.317223E-1,-1.811867E0,-1.4239411E1,-1.492841E-1,-1.2430751E0,-2.6318118E-1,1.7084558E-1,-1.0587512E0,-2.2200829E-1,-5.62744E-1,-2.1734185E0,-1.03645705E-1,-4.017504E0,7.202945E-1,-7.223598E-1,1.790131E-1,6.3144654E-1,-1.0149638E-1,-9.761763E-1,-6.5006614E-1,-2.5504527E0,-7.425089E-1,4.209326E0,3.3079166E0,1.3381025E-1,-6.553462E-1,-3.220258E0,-7.3551303E-1,1.4429238E0,9.7933125E-1,2.799412E0,-3.651367E0,4.050489E0,-4.9441104E0,1.7425592E0,7.005018E-2,-5.3519285E-1,2.8858846E-1,-9.700058E-2,1.5171106E0,-1.274594E0,1.2489799E0,-2.0947316E0,-5.508337E-1,1.1189939E0,4.6814337E-2,-5.036569E-1,5.280742E-1,-5.251542E-1,-2.673898E-1,1.8206488E0,-1.589159E0,6.0497985E0,3.9983965E-2,-2.5522113E0,-9.922717E-1,9.2428386E-2,-2.120792E0,1.2861116E0,-1.2009314E0,-1.4003827E-1,9.709041E-2,7.049166E-1,-9.0091807E-1,2.0622472E-1,3.953923E0,-5.0089617E0],"categories":[],"categories_nodes":[],"categories_segments":[],"categories_sizes":[],"default_left":[0,0,0,0,0,0,0,0,0,0,0,0,0,0,0,0,0,0,0,0,0,0,0,0,0,0,0,0,0,0,0,0,0,0,0,0,0,0,0,0,0,0,0,0,0,0,0,0,0,0,0,0,0,0,0,0,0,0,0,0,0,0,0,0,0,0,0,0,0,0,0,0,0,0,0,0,0,0,0,0,0,0,0,0,0,0,0,0,0,0,0,0,0,0,0,0,0,0,0,0,0,0,0,0,0,0,0,0,0,0,0,0,0,0,0,0,0,0,0,0,0,0,0,0,0,0,0],"id":13,"left_children":[1,3,5,7,9,11,13,15,17,19,21,23,25,27,29,31,33,35,37,39,41,43,45,47,49,51,53,55,57,59,61,63,65,67,69,71,73,75,77,79,81,83,85,87,89,91,93,95,97,99,101,103,105,107,109,111,113,115,117,119,121,123,125,-1,-1,-1,-1,-1,-1,-1,-1,-1,-1,-1,-1,-1,-1,-1,-1,-1,-1,-1,-1,-1,-1,-1,-1,-1,-1,-1,-1,-1,-1,-1,-1,-1,-1,-1,-1,-1,-1,-1,-1,-1,-1,-1,-1,-1,-1,-1,-1,-1,-1,-1,-1,-1,-1,-1,-1,-1,-1,-1,-1,-1,-1,-1,-1],"loss_changes":[3.9841324E4,2.6584494E4,2.4564436E4,2.6771303E4,2.0034959E4,3.15322E4,2.5603543E4,2.8452906E4,1.821464E4,3.1805312E3,1.50379375E4,2.091891E4,3.1183844E4,8.902895E3,1.1982244E4,2.2123555E4,1.0203168E4,3.1586475E3,1.6741215E4,1.9175562E3,1.7593303E3,5.3911133E3,7.985935E3,1.8051658E4,3.8815137E3,1.2523068E4,2.5233656E4,3.2426414E3,1.3994793E4,1.2184574E4,8.1431855E3,1.8550312E4,1.2272252E4,5.467284E3,5.8488945E3,3.3659424E3,2.3462441E3,1.1551365E4,5.27683E3,1.3518926E3,2.0841836E3,9.6368384E2,2.5184021E1,2.9712812E3,3.6761914E3,2.3895205E3,1.3863043E3,7.853006E3,1.2293793E4,8.0842637E3,7.7057734E3,2.4945592E4,9.890021E3,2.7796047E4,1.0518853E4,2.1598433E3,1.9777809E3,1.4115587E4,1.9794375E4,6.1161006E3,1.1136476E4,6.8107563E3,3.858162E3,0E0,0E0,0E0,0E0,0E0,0E0,0E0,0E0,0E0,0E0,0E0,0E0,0E0,0E0,0E0,0E0,0E0,0E0,0E0,0E0,0E0,0E0,0E0,0E0,0E0,0E0,0E0,0E0,0E0,0E0,0E0,0E0,0E0,0E0,0E0,0E0,0E0,0E0,0E0,0E0,0E0,0E0,0E0,0E0,0E0,0E0,0E0,0E0,0E0,0E0,0E0,0E0,0E0,0E0,0E0,0E0,0E0,0E0,0E0,0E0,0E0,0E0,0E0,0E0],"parents":[2147483647,0,0,1,1,2,2,3,3,4,4,5,5,6,6,7,7,8,8,9,9,10,10,11,11,12,12,13,13,14,14,15,15,16,16,17,17,18,18,19,19,20,20,21,21,22,22,23,23,24,24,25,25,26,26,27,27,28,28,29,29,30,30,31,31,32,32,33,33,34,34,35,35,36,36,37,37,38,38,39,39,40,40,41,41,42,42,43,43,44,44,45,45,46,46,47,47,48,48,49,49,50,50,51,51,52,52,53,53,54,54,55,55,56,56,57,57,58,58,59,59,60,60,61,61,62,62],"right_children":[2,4,6,8,10,12,14,16,18,20,22,24,26,28,30,32,34,36,38,40,42,44,46,48,50,52,54,56,58,60,62,64,66,68,70,72,74,76,78,80,82,84,86,88,90,92,94,96,98,100,102,104,106,108,110,112,114,116,118,120,122,124,126,-1,-1,-1,-1,-1,-1,-1,-1,-1,-1,-1,-1,-1,-1,-1,-1,-1,-1,-1,-1,-1,-1,-1,-1,-1,-1,-1,-1,-1,-1,-1,-1,-1,-1,-1,-1,-1,-1,-1,-1,-1,-1,-1,-1,-1,-1,-1,-1,-1,-1,-1,-1,-1,-1,-1,-1,-1,-1,-1,-1,-1,-1,-1,-1],"split_conditions":[8E0,1E0,3.06E-1,-5.365E0,9.846124E0,1.7E2,3.49E-1,7.52E-1,1.31227E5,1E0,1.46E-1,1.5021742E1,7.83637E0,5.75E-1,1.2277859E1,-8.313E0,8.04E-2,5E0,9.25E-1,1.7E2,1E0,1.7E2,1.1874801E1,4.86E-1,1E0,6.931472E-1,1E0,2.95E-1,8.871506E0,1E1,1E0,1E0,2E0,7.5E1,1E0,1.1229952E1,1.609438E0,1.2850484E1,1E0,1.68E2,1E0,8.503297E0,1.04E-1,1.59724E5,1.6E-1,1E0,2.5E1,2.5E-6,1.90895E5,1E0,1.68E2,4.02E-4,8.6E-1,1E0,1E0,-2.6027E1,1E0,1.54787E5,1E0,-1.7108E1,8.36E-1,1.39989E2,4.27E-1,-1.492841E-1,-1.2430751E0,-2.6318118E-1,1.7084558E-1,-1.0587512E0,-2.2200829E-1,-5.62744E-1,-2.1734185E0,-1.03645705E-1,-4.017504E0,7.202945E-1,-7.223598E-1,1.790131E-1,6.3144654E-1,-1.0149638E-1,-9.761763E-1,-6.5006614E-1,-2.5504527E0,-7.425089E-1,4.209326E0,3.3079166E0,1.3381025E-1,-6.553462E-1,-3.220258E0,-7.3551303E-1,1.4429238E0,9.7933125E-1,2.799412E0,-3.651367E0,4.050489E0,-4.9441104E0,1.7425592E0,7.005018E-2,-5.3519285E-1,2.8858846E-1,-9.700058E-2,1.5171106E0,-1.274594E0,1.2489799E0,-2.0947316E0,-5.508337E-1,1.1189939E0,4.6814337E-2,-5.036569E-1,5.280742E-1,-5.251542E-1,-2.673898E-1,1.8206488E0,-1.589159E0,6.0497985E0,3.9983965E-2,-2.5522113E0,-9.922717E-1,9.2428386E-2,-2.120792E0,1.2861116E0,-1.2009314E0,-1.4003827E-1,9.709041E-2,7.049166E-1,-9.0091807E-1,2.0622472E-1,3.953923E0,-5.0089617E0],"split_indices":[0,65,11,8,17,14,4,4,3,19,11,17,17,11,17,8,11,14,4,14,24,14,17,2,29,17,22,2,17,0,26,29,0,14,63,17,17,17,21,14,31,17,7,3,1,24,14,5,3,18,14,5,1,58,50,8,22,3,28,8,11,12,2,0,0,0,0,0,0,0,0,0,0,0,0,0,0,0,0,0,0,0,0,0,0,0,0,0,0,0,0,0,0,0,0,0,0,0,0,0,0,0,0,0,0,0,0,0,0,0,0,0,0,0,0,0,0,0,0,